/*
 * Copyright (c) 2024 EdgeImpulse Inc.
 *
 * Generated by Edge Impulse and licensed under the applicable Edge Impulse
 * Terms of Service. Community and Professional Terms of Service
 * (https://docs.edgeimpulse.com/page/terms-of-service) or Enterprise Terms of
 * Service (https://docs.edgeimpulse.com/page/enterprise-terms-of-service),
 * according to your product plan subscription (the “License”).
 *
 * This software, documentation and other associated files (collectively referred
 * to as the “Software”) is a single SDK variation generated by the Edge Impulse
 * platform and requires an active paid Edge Impulse subscription to use this
 * Software for any purpose.
 *
 * You may NOT use this Software unless you have an active Edge Impulse subscription
 * that meets the eligibility requirements for the applicable License, subject to
 * your full and continued compliance with the terms and conditions of the License,
 * including without limitation any usage restrictions under the applicable License.
 *
 * If you do not have an active Edge Impulse product plan subscription, or if use
 * of this Software exceeds the usage limitations of your Edge Impulse product plan
 * subscription, you are not permitted to use this Software and must immediately
 * delete and erase all copies of this Software within your control or possession.
 * Edge Impulse reserves all rights and remedies available to enforce its rights.
 *
 * Unless required by applicable law or agreed to in writing, the Software is
 * distributed on an "AS IS" BASIS, WITHOUT WARRANTIES OR CONDITIONS OF ANY KIND,
 * either express or implied. See the License for the specific language governing
 * permissions, disclaimers and limitations under the License.
 */
// Generated on: 14.10.2024 12:56:27

#include <stdio.h>
#include <stdlib.h>
#include "edge-impulse-sdk/tensorflow/lite/c/builtin_op_data.h"
#include "edge-impulse-sdk/tensorflow/lite/c/common.h"
#include "edge-impulse-sdk/tensorflow/lite/micro/micro_mutable_op_resolver.h"
#include "edge-impulse-sdk/porting/ei_classifier_porting.h"

#if EI_CLASSIFIER_PRINT_STATE
#if defined(__cplusplus) && EI_C_LINKAGE == 1
extern "C" {
    extern void ei_printf(const char *format, ...);
}
#else
extern void ei_printf(const char *format, ...);
#endif
#endif

#if defined (__GNUC__)  /* GNU compiler */
#define ALIGN(X) __attribute__((aligned(X)))
#define DEFINE_SECTION(x) __attribute__((section(x)))
#elif defined (_MSC_VER)
#define ALIGN(X) __declspec(align(X))
#elif defined (__TASKING__) /* TASKING Compiler */
#define ALIGN(X) __align(X)
#define DEFINE_SECTION(x) __attribute__(section(x)))
#elif defined (__ARMCC_VERSION) /* Arm Compiler */
#define ALIGN(X) __ALIGNED(x)
#define DEFINE_SECTION(x) __attribute__((section(x)))
#elif defined (__ICCARM__) /* IAR Compiler */
#define ALIGN(x) __attribute__((aligned(x)))
#define DEFINE_SECTION(x) __attribute__((section(x)))
#elif defined (__clang__) /* LLVM/Clang Compiler */
#define ALIGN(X) __ALIGNED(x)
#define DEFINE_SECTION(x) __attribute__((section(x)))
#endif

#ifndef EI_MAX_SCRATCH_BUFFER_COUNT
#ifndef CONFIG_IDF_TARGET_ESP32S3
#define EI_MAX_SCRATCH_BUFFER_COUNT 4
#else
#define EI_MAX_SCRATCH_BUFFER_COUNT 4
#endif // CONFIG_IDF_TARGET_ESP32S3
#endif // EI_MAX_SCRATCH_BUFFER_COUNT

#ifndef EI_MAX_OVERFLOW_BUFFER_COUNT
#define EI_MAX_OVERFLOW_BUFFER_COUNT 10
#endif // EI_MAX_OVERFLOW_BUFFER_COUNT

using namespace tflite;
using namespace tflite::ops;
using namespace tflite::ops::micro;

namespace {

#if defined(EI_CLASSIFIER_ALLOCATION_STATIC_HIMAX) || defined(EI_CLASSIFIER_ALLOCATION_STATIC_HIMAX_GNU)
constexpr int kTensorArenaSize = 2672;
#else
constexpr int kTensorArenaSize = 1648;
#endif

#if defined(EI_CLASSIFIER_ALLOCATION_STATIC)
#if defined (EI_TENSOR_ARENA_LOCATION)
#define STRINGIZE(x) #x
#define STRINGIZE_VALUE_OF(x) STRINGIZE(x)
uint8_t tensor_arena[kTensorArenaSize] ALIGN(16) DEFINE_SECTION(STRINGIZE_VALUE_OF(EI_TENSOR_ARENA_LOCATION));
#else
uint8_t tensor_arena[kTensorArenaSize] ALIGN(16);
#endif
#elif defined(EI_CLASSIFIER_ALLOCATION_STATIC_HIMAX)
#pragma Bss(".tensor_arena")
uint8_t tensor_arena[kTensorArenaSize] ALIGN(16);
#pragma Bss()
#elif defined(EI_CLASSIFIER_ALLOCATION_STATIC_HIMAX_GNU)
uint8_t tensor_arena[kTensorArenaSize] ALIGN(16) __attribute__((section(".tensor_arena")));
#else
#define EI_CLASSIFIER_ALLOCATION_HEAP 1
uint8_t* tensor_arena = NULL;
#endif

static uint8_t* tensor_boundary;
static uint8_t* current_location;

template <int SZ, class T> struct TfArray {
  int sz; T elem[SZ];
};

enum used_operators_e {
  OP_RESHAPE, OP_CONV_2D, OP_MAX_POOL_2D, OP_FULLY_CONNECTED, OP_SOFTMAX,  OP_LAST
};

struct TensorInfo_t { // subset of TfLiteTensor used for initialization from constant memory
  TfLiteAllocationType allocation_type;
  TfLiteType type;
  void* data;
  TfLiteIntArray* dims;
  size_t bytes;
};

typedef struct {
  TfLiteTensor tensor;
  int16_t index;
} TfLiteTensorWithIndex;

typedef struct {
  TfLiteEvalTensor tensor;
  int16_t index;
} TfLiteEvalTensorWithIndex;

TfLiteContext ctx{};
static const int MAX_TFL_TENSOR_COUNT = 4;
static TfLiteTensorWithIndex tflTensors[MAX_TFL_TENSOR_COUNT];
static const int MAX_TFL_EVAL_COUNT = 4;
static TfLiteEvalTensorWithIndex tflEvalTensors[MAX_TFL_EVAL_COUNT];
TfLiteRegistration registrations[OP_LAST];

namespace g0 {
const TfArray<2, int> tensor_dimension0 = { 2, { 1,1 } };
const ALIGN(16) float tensor_data1[128] = { 0, 0, -1.9183839559555054, -1.4381173849105835, 0, 0, 0, 0, 0, 0, 0, -0.43232882022857666, 0, -1.7219017744064331, -1.6495524644851685, -1.191810131072998, 0, -1.784752368927002, -1.6890507936477661, -0.48383796215057373, 0, 0, -0.78053170442581177, 0, 0, -0.55327922105789185, 0.10897260159254074, -1.403049111366272, 0, -1.4498273134231567, 0, 0, -1.4021879434585571, -1.6303343772888184, -2.1623196601867676, -1.6108678579330444, 0, 0, 0, 0, 0, 0, 0, -1.807063102722168, 0, 0, -0.27432247996330261, -1.7475935220718384, -1.1521029472351074, -1.6088583469390869, 0, -1.5780670642852783, 0, -1.6075395345687866, 0, 0, -1.665091872215271, -1.2294915914535522, -0.22879619896411896, -1.333229660987854, 0, 0, -2.1431479454040527, 0, -1.2585511207580566, -1.8043698072433472, -1.54463791847229, -0.052738767117261887, 0, 0, 0, -1.2230187654495239, 0, 0, 0, -1.5386483669281006, 0, 0, 0, 0, 0.45037573575973511, 0, 0, -1.4981383085250854, 0, 0.044260270893573761, -1.3369420766830444, 0, 0, 0, 0, 0, -1.3485462665557861, -1.4280288219451904, -1.440024733543396, -1.3002111911773682, -0.20411971211433411, 0, 0, -1.4278281927108765, -2.0130870342254639, 0, -0.90750950574874878, -1.5543476343154907, 0, -0.51830911636352539, 0, -1.6498870849609375, 0, -1.4383816719055176, 0, -1.3772035837173462, 0, -0.13862313330173492, 0, -0.00019274922669865191, 0, 0, -0.0084470175206661224, 0, -0.54957872629165649, 0, 0.47139400243759155, -1.2422679662704468, -0.048395730555057526, -0.76920598745346069, 0, 0, };
const TfArray<1, int> tensor_dimension1 = { 1, { 128 } };
const ALIGN(16) float tensor_data2[64] = { -1.0759896039962769, -0.079277075827121735, -0.076867982745170593, -0.13813894987106323, -0.032698933035135269, 0.4270763099193573, -0.08614310622215271, 0.26503539085388184, -0.016272086650133133, 1.7590539455413818, 0.074514493346214294, -0.27535527944564819, -0.10985519737005234, -0.067134395241737366, 1.8836843967437744, 0.1624305248260498, 0.29693502187728882, 0.08243938535451889, -0.03904588520526886, -0.10195886343717575, -0.2668091356754303, -0.0073849186301231384, -0.055608183145523071, 0.91185754537582397, 0.22008155286312103, -0.032370880246162415, 0.082671612501144409, -0.022258095443248749, -0.14528137445449829, -0.74190908670425415, -0.066808350384235382, 0.08465808629989624, -0.33153003454208374, -0.36854863166809082, -1.0901916027069092, -0.047891225665807724, 0.12904831767082214, -0.015206777490675449, -0.047978557646274567, -0.29510152339935303, -0.0059598665684461594, -0.09960019588470459, -0.072003915905952454, -0.04361613467335701, 0.77705109119415283, -0.13020302355289459, -0.056419357657432556, -0.44212299585342407, -0.10498866438865662, -0.10946056991815567, 0.24428160488605499, -0.044980421662330627, -0.23330996930599213, -0.20676037669181824, -0.37846297025680542, -0.056999132037162781, -0.10301836580038071, -1.2487949132919312, -0.021008824929594994, -0.04248414933681488, -0.12583151459693909, 0.23971587419509888, -0.061074279248714447, -0.043841101229190826, };
const TfArray<1, int> tensor_dimension2 = { 1, { 64 } };
const ALIGN(16) int32_t tensor_data3[4] = { 1, 1, 1, 1, };
const TfArray<1, int> tensor_dimension3 = { 1, { 4 } };
const ALIGN(16) float tensor_data4[128*1*3*1] = { 
  /* [0][0][][] */ -0.00051511824131011963, -0.014473311603069305, 0.028656169772148132, 
  /* [1][0][][] */ -0.120548315346241, -0.11256814748048782, -0.043671846389770508, 
  /* [2][0][][] */ 0.079514279961585999, 0.012736106291413307, -0.10572298616170883, 
  /* [3][0][][] */ -0.10189864039421082, 0.01005361694842577, 0.085176214575767517, 
  /* [4][0][][] */ 0.10013569891452789, -0.073741868138313293, -0.079722315073013306, 
  /* [5][0][][] */ -0.036772474646568298, -0.10419635474681854, 0.022547349333763123, 
  /* [6][0][][] */ 0.059928402304649353, -0.055514805018901825, 0.059432923793792725, 
  /* [7][0][][] */ 0.090554594993591309, -0.015123121440410614, 0.075772479176521301, 
  /* [8][0][][] */ 0.067475557327270508, -0.041562944650650024, -0.054719887673854828, 
  /* [9][0][][] */ -0.10320194065570831, -0.048194214701652527, 0.057273730635643005, 
  /* [10][0][][] */ 0.1186823695898056, -0.080514416098594666, 0.071711719036102295, 
  /* [11][0][][] */ -0.016913488507270813, -0.0091597568243741989, 0.047819033265113831, 
  /* [12][0][][] */ -0.05674329400062561, -0.078764632344245911, -0.044937834143638611, 
  /* [13][0][][] */ 0.029198393225669861, 0.010601270012557507, -0.032080717384815216, 
  /* [14][0][][] */ 0.11209110915660858, 0.01304185576736927, -0.095857955515384674, 
  /* [15][0][][] */ -0.00011165440082550049, 0.012127271853387356, 0.11239127814769745, 
  /* [16][0][][] */ 0.0016578733921051025, -0.029679343104362488, 0.06579117476940155, 
  /* [17][0][][] */ -0.023306496441364288, 0.0128058772534132, 0.033090919256210327, 
  /* [18][0][][] */ -0.1040993332862854, 0.012632851488888264, 0.1191137433052063, 
  /* [19][0][][] */ -0.0040171295404434204, -0.0021250944118946791, 0.05764298141002655, 
  /* [20][0][][] */ -0.017195239663124084, -0.072925277054309845, 0.060195013880729675, 
  /* [21][0][][] */ -0.0082717537879943848, -0.00075448304414749146, 0.087610960006713867, 
  /* [22][0][][] */ -0.016227640211582184, -0.00082394812488928437, -0.087562695145606995, 
  /* [23][0][][] */ 0.064357936382293701, -0.048551164567470551, -0.0014219284057617188, 
  /* [24][0][][] */ 0.024924442172050476, -0.12006757408380508, -0.026674166321754456, 
  /* [25][0][][] */ 0.092284783720970154, -0.0054393014870584011, 0.075125589966773987, 
  /* [26][0][][] */ -0.034732356667518616, -0.017182145267724991, -0.071645930409431458, 
  /* [27][0][][] */ -0.12128014862537384, 0.016183787956833839, 0.052682384848594666, 
  /* [28][0][][] */ 0.11817161738872528, -0.089347213506698608, -0.085194557905197144, 
  /* [29][0][][] */ 0.055414170026779175, 0.011693986132740974, 0.021524995565414429, 
  /* [30][0][][] */ 0.028806552290916443, -0.011672556400299072, 0.048546925187110901, 
  /* [31][0][][] */ 0.041719213128089905, -0.016370490193367004, -0.080829359591007233, 
  /* [32][0][][] */ -0.11800844967365265, 0.013456431217491627, 0.019891858100891113, 
  /* [33][0][][] */ -0.12398578971624374, 0.016231589019298553, -0.07886938750743866, 
  /* [34][0][][] */ -0.10458800941705704, 0.01512017659842968, 0.05860099196434021, 
  /* [35][0][][] */ 0.10425125062465668, 0.012687294743955135, -0.045693770051002502, 
  /* [36][0][][] */ -0.0793919637799263, -0.058158576488494873, -0.042899549007415771, 
  /* [37][0][][] */ 0.06094302237033844, -0.047808557748794556, -0.02374594658613205, 
  /* [38][0][][] */ -0.031661637127399445, -0.043337635695934296, -0.12143134325742722, 
  /* [39][0][][] */ 0.093000710010528564, -0.039664871990680695, 0.058132752776145935, 
  /* [40][0][][] */ -0.027186498045921326, -0.010049149394035339, -0.042889662086963654, 
  /* [41][0][][] */ 0.1001797616481781, -0.067631766200065613, -0.088452845811843872, 
  /* [42][0][][] */ -0.10528035461902618, -0.0075523853302001953, -0.092332199215888977, 
  /* [43][0][][] */ -0.065151482820510864, 0.013739007525146008, -0.0019919425249099731, 
  /* [44][0][][] */ 0.019753158092498779, -0.099902220070362091, 0.10801209509372711, 
  /* [45][0][][] */ 0.02180182933807373, -0.017019733786582947, -0.065850928425788879, 
  /* [46][0][][] */ -0.04396066814661026, -0.0053066061809659004, 0.085483774542808533, 
  /* [47][0][][] */ 0.034555420279502869, 0.011288945563137531, -0.02745462954044342, 
  /* [48][0][][] */ 0.073884591460227966, 0.017642127349972725, 0.066227540373802185, 
  /* [49][0][][] */ -0.10488317906856537, 0.016489921137690544, -0.002078622579574585, 
  /* [50][0][][] */ 0.055825561285018921, -0.0035146549344062805, -0.019509695470333099, 
  /* [51][0][][] */ 0.1097400039434433, 0.013451713137328625, -0.11885977536439896, 
  /* [52][0][][] */ 0.0012890249490737915, -0.098134711384773254, -0.052726373076438904, 
  /* [53][0][][] */ -0.067491114139556885, 0.0085609126836061478, 0.096634015440940857, 
  /* [54][0][][] */ -0.06715036928653717, -0.010630615055561066, -0.071642905473709106, 
  /* [55][0][][] */ -0.091918274760246277, -0.10395749658346176, 0.05593593418598175, 
  /* [56][0][][] */ -0.049098052084445953, 0.010949560441076756, 0.090931162238121033, 
  /* [57][0][][] */ 0.11006453633308411, 0.01090154517441988, -0.087867692112922668, 
  /* [58][0][][] */ 0.065739020705223083, -0.0014631357043981552, -0.047942794859409332, 
  /* [59][0][][] */ 0.0065058767795562744, 0.015252508223056793, 0.095675855875015259, 
  /* [60][0][][] */ 0.10152363777160645, -0.019657418131828308, 0.04505370557308197, 
  /* [61][0][][] */ 0.01538299024105072, -0.12436150014400482, -0.041390731930732727, 
  /* [62][0][][] */ -0.087189055979251862, 0.0094234813004732132, -0.064545705914497375, 
  /* [63][0][][] */ 0.0728721022605896, -0.028695769608020782, -0.050708398222923279, 
  /* [64][0][][] */ -0.0777311772108078, 0.015944819897413254, 0.030516952276229858, 
  /* [65][0][][] */ -0.005343019962310791, 0.013041351921856403, 0.095426246523857117, 
  /* [66][0][][] */ -0.067320510745048523, 0.012473694048821926, 0.039950907230377197, 
  /* [67][0][][] */ 0.10463693737983704, -0.003678374458104372, -0.093832440674304962, 
  /* [68][0][][] */ -0.021059691905975342, -0.10879690945148468, 0.071080669760704041, 
  /* [69][0][][] */ -0.0080192983150482178, -0.015999674797058105, -0.11122684925794601, 
  /* [70][0][][] */ -0.11858110874891281, -0.043502576649188995, -0.049692496657371521, 
  /* [71][0][][] */ -0.037428669631481171, 0.016972314566373825, -0.041253402829170227, 
  /* [72][0][][] */ -0.039635658264160156, -0.003847859799861908, 0.050722047686576843, 
  /* [73][0][][] */ -0.0067525133490562439, -0.078689545392990112, -0.013416849076747894, 
  /* [74][0][][] */ 0.023700043559074402, -0.092744573950767517, -0.0021416172385215759, 
  /* [75][0][][] */ -0.11621977388858795, 0.018344473093748093, -0.051234506070613861, 
  /* [76][0][][] */ -0.0089426115155220032, -0.03614092618227005, 0.015744313597679138, 
  /* [77][0][][] */ 0.087191343307495117, -0.11483549326658249, -0.12412261217832565, 
  /* [78][0][][] */ -0.12075799703598022, -0.0048086047172546387, -0.10960100591182709, 
  /* [79][0][][] */ -0.060620397329330444, -0.026856981217861176, 0.020360037684440613, 
  /* [80][0][][] */ 0.034774661064147949, -0.031770631670951843, -0.097565680742263794, 
  /* [81][0][][] */ -0.036061510443687439, -0.10549422353506088, -0.086304575204849243, 
  /* [82][0][][] */ 0.053123459219932556, -0.093647465109825134, 0.0078293085098266602, 
  /* [83][0][][] */ -0.010166734457015991, 0.013362801633775234, -0.003429509699344635, 
  /* [84][0][][] */ -0.097894541919231415, -0.028664596378803253, 0.088757574558258057, 
  /* [85][0][][] */ -0.041608035564422607, -0.025374682620167732, 0.060397237539291382, 
  /* [86][0][][] */ -0.076165512204170227, 0.015452306717634201, 0.072240680456161499, 
  /* [87][0][][] */ 0.10657407343387604, -0.0075829625129699707, -0.059607900679111481, 
  /* [88][0][][] */ -0.10580245405435562, -0.10794725269079208, 0.080671757459640503, 
  /* [89][0][][] */ -0.071749269962310791, -0.043681912124156952, 0.035154491662979126, 
  /* [90][0][][] */ -0.097484871745109558, -0.11431541293859482, -0.062636114656925201, 
  /* [91][0][][] */ -0.094577871263027191, -0.10001321882009506, -0.066152013838291168, 
  /* [92][0][][] */ 0.074868500232696533, 0.011569680646061897, -0.057281695306301117, 
  /* [93][0][][] */ 0.11026449501514435, 0.010180304758250713, 0.072241172194480896, 
  /* [94][0][][] */ 0.0082231611013412476, 0.015660794451832771, -0.0010933876037597656, 
  /* [95][0][][] */ -0.11558695137500763, 0.013790423050522804, -0.043406091630458832, 
  /* [96][0][][] */ 0.10008372366428375, -0.011638253927230835, -0.04178253561258316, 
  /* [97][0][][] */ 0.089848384261131287, -0.044428974390029907, -0.020119220018386841, 
  /* [98][0][][] */ 0.05969981849193573, -0.0092527121305465698, 0.015920385718345642, 
  /* [99][0][][] */ -0.021138183772563934, 0.012443282641470432, 0.054517596960067749, 
  /* [100][0][][] */ 0.059613451361656189, 0.016691805794835091, -0.061559826135635376, 
  /* [101][0][][] */ 0.020408719778060913, -0.084808342158794403, 0.032169893383979797, 
  /* [102][0][][] */ -0.064618170261383057, 0.013227164745330811, -0.073127530515193939, 
  /* [103][0][][] */ 0.071468755602836609, 0.011959281750023365, -0.10360502451658249, 
  /* [104][0][][] */ -0.092390738427639008, -0.11442320048809052, -0.059402532875537872, 
  /* [105][0][][] */ -0.097575828433036804, -0.0080978265032172203, 0.12411867082118988, 
  /* [106][0][][] */ -0.1205262616276741, -0.12277615070343018, 0.0016081184148788452, 
  /* [107][0][][] */ 0.035058408975601196, 0.012150323949754238, 0.040795132517814636, 
  /* [108][0][][] */ 0.076324418187141418, -0.039009034633636475, -0.010705575346946716, 
  /* [109][0][][] */ 0.073329076170921326, 0.010968891903758049, -0.037943907082080841, 
  /* [110][0][][] */ -0.049415759742259979, -0.047353371977806091, 0.12084048986434937, 
  /* [111][0][][] */ -0.11019568145275116, 0.011968199163675308, -0.083557084202766418, 
  /* [112][0][][] */ -0.10661494731903076, -0.1084958016872406, 0.12176217138767242, 
  /* [113][0][][] */ 0.11963406205177307, -0.0016863915370777249, 0.08707505464553833, 
  /* [114][0][][] */ -0.073766767978668213, -0.089429795742034912, 0.043690130114555359, 
  /* [115][0][][] */ 0.033592656254768372, -0.0025763378944247961, 0.11122533679008484, 
  /* [116][0][][] */ -0.029511526226997375, -0.07735009491443634, 0.10254755616188049, 
  /* [117][0][][] */ -0.038220323622226715, -0.12150657176971436, -0.10014618188142776, 
  /* [118][0][][] */ 0.010468557476997375, -0.0072134300135076046, 0.069311052560806274, 
  /* [119][0][][] */ -0.040655657649040222, -0.044025085866451263, 0.043227940797805786, 
  /* [120][0][][] */ 0.035159572958946228, -0.0060961898416280746, 0.053687006235122681, 
  /* [121][0][][] */ 0.038472145795822144, -0.12396664172410965, 0.11385856568813324, 
  /* [122][0][][] */ 0.075366288423538208, -0.014840558171272278, -0.067669175565242767, 
  /* [123][0][][] */ -0.012020692229270935, 0.013868409208953381, -0.065852150321006775, 
  /* [124][0][][] */ 0.1028522402048111, -0.0018672849982976913, -0.059061579406261444, 
  /* [125][0][][] */ 0.011931121349334717, 0.015498419292271137, -0.073365435004234314, 
  /* [126][0][][] */ -0.040423870086669922, -0.10616391897201538, 0.052290543913841248, 
  /* [127][0][][] */ 0.033320188522338867, -0.068986430764198303, 0.077434435486793518, 
};
const TfArray<4, int> tensor_dimension4 = { 4, { 128,1,3,1 } };
const ALIGN(16) float tensor_data5[64*1*3*128] = { 
  /* [0][0][][] */ 0.035417139530181885,-0.031452015042304993,-0.0042565613985061646,-0.070555403828620911,0.029793784022331238,-0.084604158997535706,0.0026564151048660278,0.059463351964950562,-0.047712072730064392,-0.082978293299674988,-0.023091681301593781,0.097205862402915955,-0.089128583669662476,-0.035860612988471985,0.074682533740997314,-0.090610779821872711,0.084387585520744324,0.0011923685669898987,0.039341390132904053,-0.032381653785705566,0.059305697679519653,0.045578151941299438,0.037899643182754517,0.060827940702438354,-0.09035046398639679,0.055015087127685547,0.082054659724235535,-0.061211466789245605,0.091040268540382385,0.010673061013221741,0.02373097836971283,0.07242545485496521,-0.10144536942243576,-0.0073638260364532471,-0.017557539045810699,0.093566522002220154,-0.033106595277786255,0.013832449913024902,0.0095541849732398987,-0.072735227644443512,-0.03271840512752533,-0.044900067150592804,-0.049788836389780045,0.043468266725540161,0.081579208374023438,0.0022862553596496582,-0.07900102436542511,-0.052647098898887634,0.035529598593711853,-0.049536231905221939,-0.003320842981338501,-0.033774159848690033,0.073465719819068909,-0.0025401711463928223,-0.020442835986614227,-0.0066458657383918762,0.024188250303268433,-0.062665782868862152,0.067457795143127441,-0.099447637796401978,0.090241327881813049,-0.021240539848804474,-0.021362081170082092,-0.075002208352088928,-0.048377592116594315,-0.054858453571796417,0.0024664178490638733,-0.079663068056106567,-0.079751595854759216,-0.064153462648391724,0.010985769331455231,0.020902082324028015,0.0029556676745414734,0.07054552435874939,0.095256894826889038,-0.034445643424987793,-0.016785003244876862,0.03358323872089386,-0.04946281760931015,-0.065931312739849091,-0.066357836127281189,0.093290820717811584,-0.09575527161359787,-0.012232542037963867,-0.073042146861553192,-0.0037253573536872864,-0.0023976266384124756,0.023626029491424561,-0.031411036849021912,0.071354255080223083,-0.089593738317489624,0.010275915265083313,0.072210520505905151,0.068334907293319702,-0.049290023744106293,-0.085721477866172791,-0.019888207316398621,0.086077943444252014,-0.086883403360843658,0.079599723219871521,-0.037745170295238495,-0.028449848294258118,-0.101645827293396,-0.02777688205242157,-0.061226505786180496,-0.013516135513782501,-0.0071818158030509949,0.039671853184700012,0.061182364821434021,-0.0013151541352272034,0.065755724906921387,0.094652503728866577,0.026730269193649292,0.040535733103752136,-0.059882443398237228,0.018500491976737976,-0.10122340172529221,0.061871662735939026,0.054682090878486633,-0.0622602179646492,0.020343802869319916,0.027342841029167175,0.097577020525932312,0.015530683100223541,-0.048898693174123764,-0.0058313757181167603,0.074233725666999817,0.039086505770683289, 0.0026029571890830994,0.016309961676597595,0.02394581213593483,0.017987297847867012,0.085356056690216064,0.093233346939086914,-0.058131042867898941,-0.015471622347831726,-0.033891111612319946,0.094723433256149292,-0.10133893042802811,-0.071375474333763123,0.037328943610191345,0.015344006940722466,0.024300236254930496,0.021657109260559082,0.04134136438369751,0.017110375687479973,0.023635245859622955,0.074870862066745758,0.071974441409111023,0.074667453765869141,-0.034391149878501892,-0.021012604236602783,0.10146366059780121,0.026147197932004929,-0.064796924591064453,0.02968350425362587,0.060452476143836975,0.033512048423290253,0.098533183336257935,-0.030719868838787079,0.017693767324090004,0.029101613909006119,0.029947593808174133,0.0064707272686064243,0.077193543314933777,0.048590317368507385,-0.017433315515518188,-0.06153169646859169,0.042006224393844604,0.076484456658363342,0.027420610189437866,0.014657249674201012,0.072051376104354858,0.066369920969009399,-0.0012931507080793381,0.02528826892375946,0.02110995352268219,0.038187470287084579,-0.074221953749656677,0.014923078007996082,0.029040664434432983,0.021623115986585617,-0.065732799470424652,-0.036059439182281494,0.037111591547727585,0.016162853688001633,0.014704104512929916,0.017150159925222397,-0.091148041188716888,-0.010805748403072357,0.02485860139131546,0.0082982555031776428,0.0026561988051980734,0.030481455847620964,0.040801338851451874,-0.0062185972929000854,-0.028454884886741638,-0.062763795256614685,0.067030802369117737,0.021209279075264931,0.0037814527750015259,0.0029547661542892456,-0.052818164229393005,0.032665655016899109,-0.058855302631855011,-0.059063013643026352,-0.019023947417736053,0.092008918523788452,-0.0057145240716636181,-0.052479222416877747,-0.035391487181186676,0.0069128912873566151,0.067263573408126831,-0.024173198267817497,0.011029042303562164,0.079396888613700867,0.087874293327331543,-0.036459602415561676,0.0047324299812316895,-0.028106041252613068,0.01232675276696682,0.028044337406754494,0.012141161598265171,0.027440067380666733,0.0027074178215116262,-0.075027689337730408,-0.063904359936714172,0.014173098839819431,0.015082497149705887,-0.081441774964332581,0.0078155575320124626,0.032969366759061813,-0.058632578700780869,0.054334241896867752,0.093908548355102539,0.0085091367363929749,0.04378315806388855,0.026474690064787865,0.048623114824295044,0.018996894359588623,0.095694318413734436,-0.024973122403025627,-0.05308157205581665,-0.0083436882123351097,0.077007457613945007,-0.023514695465564728,-0.060414008796215057,0.081839606165885925,0.046740282326936722,-0.069445021450519562,0.0049358694814145565,0.026667432859539986,-0.025931691750884056,-0.0026202341541647911,0.070218712091445923,0.083173096179962158, -0.061022199690341949,-0.048447649925947189,0.06957535445690155,0.029985383152961731,-0.080861642956733704,0.017951525747776031,0.076306194067001343,0.097988724708557129,-0.017659328877925873,-0.040550235658884048,0.030482783913612366,0.0080001205205917358,-0.098983012139797211,0.027430802583694458,0.039033770561218262,0.08188861608505249,0.094496160745620728,-0.023978643119335175,0.081288695335388184,0.02119099348783493,0.047536000609397888,-0.082730650901794434,0.088484764099121094,-0.052564777433872223,0.013511732220649719,-0.083467364311218262,-0.045956920832395554,-0.061132259666919708,0.020321093499660492,-0.057061243802309036,-0.0058410614728927612,-0.084611818194389343,0.098686248064041138,0.039552375674247742,-0.058545466512441635,-0.08268071711063385,0.064651146531105042,-0.063092157244682312,0.057068035006523132,-0.069494150578975677,-0.062566861510276794,-0.030462518334388733,0.013910681009292603,0.097980499267578125,-0.059337034821510315,-0.040060330182313919,0.092886283993721008,0.011571355164051056,-0.099631913006305695,-0.041345845907926559,0.012211889028549194,-0.017677478492259979,0.049568504095077515,-0.070746205747127533,-0.023753143846988678,-0.029428713023662567,0.052058637142181396,0.029268980026245117,0.084924355149269104,-0.023641012609004974,0.085614189505577087,0.0015843510627746582,-0.0029337406158447266,0.033501774072647095,-0.028676755726337433,0.080211982131004333,0.033577978610992432,0.050734579563140869,0.025627672672271729,-0.045076996088027954,-0.032449252903461456,-0.090987071394920349,0.039643868803977966,0.020372249186038971,-0.0074874907732009888,0.066690683364868164,-0.052239730954170227,-0.013194158673286438,0.01330210268497467,0.057557523250579834,-0.098512716591358185,0.015445664525032043,0.0048298090696334839,0.095889002084732056,-0.066362306475639343,-0.064222835004329681,-0.021656595170497894,0.091525331139564514,-0.04425126314163208,-0.058994684368371964,0.00085909664630889893,0.069495484232902527,0.056693226099014282,-0.031496062874794006,-0.051386211067438126,0.0025179833173751831,-0.057302705943584442,-0.030225314199924469,0.07807748019695282,-0.076445966958999634,0.071554973721504211,-0.0075201243162155151,-0.044342417269945145,0.053052246570587158,0.010096043348312378,0.085328608751296997,0.078842818737030029,0.037070229649543762,0.098404243588447571,-0.071660004556179047,0.044684723019599915,-0.057172495871782303,-0.074116542935371399,-0.077361971139907837,0.054622933268547058,-0.036641694605350494,-0.046391274780035019,0.072470009326934814,-0.062460917979478836,-0.047054775059223175,-0.015741750597953796,0.013116046786308289,-0.032545298337936401,-0.00042196363210678101,0.027740895748138428,0.088025465607643127,-0.055877685546875,0.042761638760566711, 
  /* [1][0][][] */ -0.049097716808319092,-0.005881771445274353,-0.065238833427429199,0.073403522372245789,0.083950996398925781,-0.051441226154565811,0.01548893004655838,-0.097065269947052002,0.0083202272653579712,-0.027486458420753479,0.074525371193885803,-0.024673238396644592,-0.070182010531425476,0.097364082932472229,-0.045126613229513168,0.048553764820098877,-0.07920856773853302,0.01811961829662323,-0.023600570857524872,-0.093935713171958923,-0.050318259745836258,-0.043847132474184036,0.051660835742950439,0.017037190496921539,0.087137460708618164,0.096125796437263489,-0.045046240091323853,-0.070478931069374084,0.021972976624965668,0.0098045021295547485,0.0070698261260986328,0.087563738226890564,0.081554606556892395,0.068927258253097534,0.07275804877281189,-0.051345646381378174,-0.076426617801189423,-0.021147705614566803,-0.059009019285440445,-0.054082337766885757,0.0011071041226387024,-0.020416997373104095,-0.0074804052710533142,0.013519935309886932,-0.034078843891620636,0.023547962307929993,0.033112064003944397,0.088582783937454224,-0.044840838760137558,-0.039894863963127136,0.099799111485481262,-0.032895453274250031,-0.0657958984375,0.079121798276901245,-0.050661142915487289,-0.078972510993480682,-0.025684177875518799,0.075654119253158569,0.036637261509895325,0.071549132466316223,0.026388198137283325,-0.077463202178478241,0.0090417936444282532,0.010807432234287262,-0.09346337616443634,0.012550875544548035,-0.095830850303173065,0.017130367457866669,-0.011731758713722229,-0.055240366607904434,-0.012814775109291077,-0.070400446653366089,-0.0077079981565475464,-0.00065121054649353027,-0.0006547197699546814,0.074944823980331421,0.035542771220207214,-0.037771277129650116,0.095259726047515869,-0.04160570353269577,-0.06799885630607605,0.048645973205566406,0.04960903525352478,0.042306065559387207,0.093395233154296875,-0.091747008264064789,-0.0030757039785385132,0.071958377957344055,-0.054515302181243896,0.015192471444606781,0.086643397808074951,-0.037258349359035492,-0.082657918334007263,-0.088373586535453796,0.10108375549316406,0.095311969518661499,0.043104156851768494,0.064164489507675171,-0.076989136636257172,0.042351081967353821,-0.056305978447198868,0.056963205337524414,-0.01792590320110321,0.0069913566112518311,-0.017413586378097534,-0.062213398516178131,-0.087547995150089264,0.068245306611061096,0.066864386200904846,0.066334590315818787,0.097954928874969482,0.059621661901473999,0.034537240862846375,0.041939869523048401,0.090310141444206238,0.030876338481903076,-0.0061122104525566101,-0.063612110912799835,0.035353034734725952,0.080382704734802246,-0.0065690204501152039,0.03898368775844574,0.0085015371441841125,-0.037606343626976013,0.058928251266479492,0.0045500993728637695,0.025998055934906006,-0.084300965070724487, -0.030550144612789154,-0.04679730162024498,-0.015944728627800941,0.024355500936508179,-0.098853051662445068,0.066359654068946838,-0.00086423009634017944,0.020658165216445923,0.03338111937046051,0.039164036512374878,0.032557383179664612,0.062058176845312119,-0.022651903331279755,-0.038573604077100754,-0.060466423630714417,0.031252093613147736,-0.061696264892816544,-0.020347941666841507,-0.0057879094965755939,-0.07927192747592926,-0.071046456694602966,-0.023483648896217346,-0.0178409144282341,0.018336020410060883,0.039370834827423096,-0.071708977222442627,-0.070606529712677002,-0.082764342427253723,-0.07107003778219223,-0.047151636332273483,0.032206043601036072,0.063368260860443115,-0.10361297428607941,-0.043826665729284286,-0.044315174221992493,-0.10904549807310104,-0.064412996172904968,-0.0086186826229095459,-0.067806839942932129,0.016852453351020813,0.0022215023636817932,0.049852326512336731,0.06373557448387146,0.020762709900736809,0.069523736834526062,0.012623436748981476,-0.059577494859695435,0.039260022342205048,-0.12433285266160965,-0.015144958160817623,0.035274535417556763,0.061711080372333527,-0.055567651987075806,0.0009215186582878232,-0.099093072116374969,0.077729120850563049,0.0037122790236026049,0.03908756747841835,0.019648751243948936,-0.027135087177157402,0.018070079386234283,0.053482130169868469,0.00063482520636171103,0.035592406988143921,0.029135681688785553,-0.034027203917503357,-0.024927688762545586,-0.052734963595867157,0.02605399489402771,0.033186867833137512,0.0039050653576850891,0.023196356371045113,-0.09262578934431076,-0.059354066848754883,-0.020320631563663483,-0.0001182047781185247,-0.043311554938554764,0.01768232136964798,0.058010056614875793,-0.026504673063755035,0.032594192773103714,0.0074805766344070435,-0.040555372834205627,-0.067482948303222656,0.059587821364402771,-0.072216972708702087,-0.045667305588722229,0.025394588708877563,0.038770362734794617,0.073205307126045227,0.059095203876495361,0.055874183773994446,-0.088320523500442505,0.056320216506719589,-0.033662028610706329,-0.038186229765415192,0.034658074378967285,0.036297962069511414,-0.091121271252632141,0.021058319136500359,-0.11538198590278625,0.0014166459441184998,-0.056915346533060074,-0.090146340429782867,0.045242860913276672,0.062205217778682709,-0.088936664164066315,-0.057580273598432541,-0.022622287273406982,-0.13386154174804688,0.004116445779800415,-0.00077682558912783861,-0.076194643974304199,0.056575208902359009,-0.069352917373180389,-0.010347170755267143,0.10111555457115173,-0.047967817634344101,-0.046010483056306839,-0.056508798152208328,0.0754428431391716,0.052055090665817261,0.073669403791427612,-0.14266134798526764,0.033874344080686569,0.02210056409239769,-0.016643382608890533,-0.051042135804891586, 0.098616495728492737,-0.08932996541261673,-0.0063809454441070557,-0.013144366443157196,0.081389501690864563,0.038108304142951965,0.0092204958200454712,-0.069668084383010864,0.092507824301719666,0.07806830108165741,0.099983319640159607,0.088225364685058594,0.078851982951164246,0.078773066401481628,-0.016399070620536804,0.028741270303726196,-0.011374548077583313,-0.014071844518184662,-0.085236974060535431,-0.073849894106388092,-0.036916881799697876,-0.076882019639015198,-0.08175012469291687,-0.093304060399532318,-0.095945172011852264,-0.040488258004188538,-0.037704676389694214,0.0013615041971206665,0.059562578797340393,-0.066714756190776825,-0.076983563601970673,-0.083440020680427551,-0.026586070656776428,0.089855864644050598,-0.043526686728000641,-0.047437857836484909,-0.052726522088050842,0.082359924912452698,-0.10173416137695312,-0.058545000851154327,-0.052544970065355301,-0.036468289792537689,-0.0085014402866363525,0.043449103832244873,0.046270430088043213,-0.087955489754676819,-0.078341811895370483,-0.034159600734710693,-0.05857495591044426,0.016280055046081543,0.092567414045333862,-0.018277496099472046,0.045242950320243835,0.039259582757949829,-0.029697909951210022,0.00070173293352127075,0.026320785284042358,0.097003430128097534,-0.00050316751003265381,-0.095362022519111633,0.089507713913917542,-0.031904689967632294,-0.060257498174905777,-0.062254860997200012,-0.058704216033220291,-0.063436493277549744,0.0087902769446372986,0.012919604778289795,0.012560509145259857,-0.05346144363284111,-0.012195996940135956,-0.056675218045711517,0.0096618309617042542,-0.033335767686367035,0.080928310751914978,0.0012062117457389832,-0.097789213061332703,-0.0039585232734680176,0.084393471479415894,-0.063748672604560852,-0.075922183692455292,0.077163189649581909,0.034343421459197998,-0.06988900899887085,0.051268234848976135,0.079634934663772583,-0.098304279148578644,-0.080679722130298615,0.047491490840911865,0.059276416897773743,0.056453198194503784,0.015263766050338745,-0.024353377521038055,-0.027630291879177094,0.091279923915863037,-0.058810871094465256,-0.083700314164161682,0.082530289888381958,-0.031151257455348969,-0.010060101747512817,-0.02075379341840744,0.012273840606212616,-0.0062522739171981812,-0.094556212425231934,0.067408263683319092,0.034637272357940674,0.019508190453052521,-0.065990589559078217,0.10144555568695068,0.075917482376098633,-0.098588369786739349,0.078349664807319641,-0.03899800032377243,0.049831077456474304,-0.097543105483055115,0.0025351643562316895,-0.047434646636247635,0.056368395686149597,-0.026891551911830902,-0.0024550333619117737,-0.095309361815452576,-0.070646271109580994,-0.030258022248744965,0.012032940983772278,-0.063800916075706482,-0.089895203709602356,-0.076014801859855652,-0.03506094217300415, 
  /* [2][0][][] */ -0.019749991595745087,0.0098589137196540833,0.099358946084976196,0.050354927778244019,-0.075715303421020508,-0.030497804284095764,0.088162243366241455,-0.08336310088634491,-0.015690140426158905,0.074875235557556152,-0.018780909478664398,0.071477994322776794,0.037727653980255127,-0.088663637638092041,-0.070008069276809692,0.08395683765411377,0.015554748475551605,-0.096088983118534088,0.079975336790084839,-0.093214809894561768,-0.087009154260158539,-0.00042717158794403076,-0.014519043266773224,0.074171632528305054,-0.074923247098922729,0.034050002694129944,0.026350423693656921,-0.01329272985458374,-0.099677249789237976,-0.057466711848974228,-0.047614395618438721,-0.088294990360736847,-0.0793447345495224,-0.042174134403467178,-0.044752191752195358,-0.010800272226333618,-0.097815349698066711,0.097011223435401917,0.095861926674842834,-0.044281315058469772,0.049400627613067627,0.095428541302680969,-0.070524334907531738,0.063057035207748413,0.0055032894015312195,-0.04936898872256279,0.028365015983581543,0.096452310681343079,-0.07869807630777359,0.08018280565738678,-0.062146507203578949,0.077634111046791077,-0.083785548806190491,-0.019183970987796783,-0.038421198725700378,0.087649568915367126,0.071257501840591431,-0.083103679120540619,0.051243975758552551,0.015436612069606781,-0.076717600226402283,0.073174372315406799,0.036762923002243042,0.098163381218910217,0.091173440217971802,0.025437355041503906,-0.030463613569736481,0.062809690833091736,-0.021581083536148071,-0.0061914846301078796,-0.094180434942245483,-0.017018288373947144,-0.10023762285709381,0.098657473921775818,0.0010067522525787354,-0.073369726538658142,-0.086849629878997803,-0.05134795606136322,-0.035557955503463745,-0.024831697344779968,-0.068958327174186707,0.016493462026119232,0.00091370195150375366,0.10162307322025299,-0.041578229516744614,-0.025711476802825928,0.0092898458242416382,0.06918083131313324,-0.095710694789886475,0.037490516901016235,-0.0026775598526000977,-0.089999474585056305,0.039239510893821716,0.0055164247751235962,0.056953907012939453,0.06868453323841095,-0.047709904611110687,0.07625676691532135,0.078391626477241516,-0.075592026114463806,0.085745587944984436,-0.095935702323913574,-0.090362995862960815,0.03436279296875,-0.015582293272018433,-0.079835474491119385,-0.033633418381214142,-0.10107313841581345,-0.095298044383525848,-0.082403585314750671,-0.085004270076751709,-0.058573741465806961,-0.040413264185190201,-0.01050267368555069,0.036119252443313599,-0.05277971550822258,-0.068290203809738159,0.0056715309619903564,0.010320834815502167,0.021742463111877441,0.046243011951446533,-0.033497855067253113,-0.095819219946861267,-0.030939869582653046,0.078471720218658447,0.046309784054756165,-0.019636742770671844,-0.046019628643989563, 0.04647420346736908,0.033677458763122559,-0.031585413962602615,0.011930028907954693,0.038445055484771729,0.023584827780723572,-0.062583610415458679,-0.09402146190404892,-0.098954953253269196,-0.0090115964412689209,-0.023134119808673859,0.065663851797580719,-0.09473969042301178,-0.065118126571178436,-0.028131755068898201,0.013750109821557999,-0.076399385929107666,-0.020952103659510612,0.0059534762986004353,0.063168056309223175,-0.081586971879005432,0.058744311332702637,-0.013448886573314667,0.0010467022657394409,0.07094043493270874,0.0010578104993328452,0.075935035943984985,-0.0025066370144486427,-0.098158545792102814,-0.076958179473876953,0.022345669567584991,0.079736977815628052,-0.071849174797534943,-0.010901233181357384,-0.090255975723266602,-0.084741599857807159,-0.057085748761892319,-0.071203261613845825,0.058155059814453125,0.014321625232696533,-0.10180766880512238,0.023128911852836609,0.038098737597465515,-0.044278047978878021,0.048932880163192749,0.03027026355266571,-0.059356182813644409,0.0098901018500328064,-0.062230207026004791,-0.045291319489479065,-0.01676516979932785,-0.050262685865163803,0.099047392606735229,-0.010279524140059948,0.048364162445068359,-0.010026521980762482,-0.025357391685247421,0.032775126397609711,0.03945227712392807,-0.07671511173248291,-0.059403341263532639,0.0041642859578132629,-0.051242068409919739,0.071465939283370972,-0.069376274943351746,0.077786833047866821,0.019485572353005409,-0.0070478389970958233,-0.079173475503921509,-0.017089143395423889,0.09189257025718689,0.012793969362974167,0.08795514702796936,-0.044543121010065079,0.049794942140579224,-0.090698525309562683,-0.096631377935409546,0.036672845482826233,0.061906024813652039,-0.085518166422843933,-0.066748924553394318,0.062563151121139526,-0.05006156861782074,0.08518817275762558,0.0051849111914634705,0.029897551983594894,-0.05250246450304985,-0.059523575007915497,-0.068901896476745605,-0.047856807708740234,0.066095903515815735,-0.0736275315284729,-0.1307450532913208,-0.089864648878574371,0.012369003146886826,-0.038181662559509277,-0.0096549596637487411,0.043615520000457764,-0.0070659369230270386,0.08792094886302948,-0.062511488795280457,0.0388680100440979,0.02847621962428093,0.051294226199388504,0.069878891110420227,0.083941474556922913,-0.0021621063351631165,-0.0092755779623985291,-0.094658002257347107,-0.036955758929252625,0.031029686331748962,-0.008562169037759304,0.10204920172691345,0.0070875124074518681,0.002536475658416748,0.078515432775020599,0.069709569215774536,0.013834834098815918,0.074725702404975891,0.044524773955345154,-0.077406160533428192,-0.02940242737531662,-0.0010008931858465075,0.0032407473772764206,0.063692182302474976,-0.01627206988632679,-0.096188649535179138,0.098364070057868958, -0.018746428191661835,-0.057231944054365158,-0.016750037670135498,0.058016061782836914,0.066162332892417908,0.06576615571975708,-0.067018948495388031,0.031150743365287781,-0.095006406307220459,0.047266602516174316,0.074232831597328186,-0.085817158222198486,0.020349539816379547,-0.038413561880588531,-0.065430670976638794,0.089802399277687073,0.0076535418629646301,0.037827193737030029,0.054705023765563965,-0.0038190707564353943,-0.082348272204399109,0.013428948819637299,-0.071172721683979034,-0.049765672534704208,0.068813472986221313,0.015151642262935638,-0.00085680931806564331,-0.048913318663835526,-0.043851464986801147,-0.007765062153339386,0.095055952668190002,0.012348614633083344,-0.00028628110885620117,0.090835690498352051,-0.010040730237960815,-0.046977564692497253,0.00046457350254058838,-0.03422817587852478,0.099493503570556641,-0.02404969185590744,0.043537944555282593,0.064322143793106079,-0.06142779067158699,-0.0066317766904830933,0.02111295610666275,0.029422402381896973,-0.051991529762744904,0.025004908442497253,-0.040550380945205688,-0.092735365033149719,-0.090820297598838806,0.046603292226791382,0.0079511404037475586,-0.079764127731323242,0.035917997360229492,-0.033360540866851807,0.045715630054473877,-0.0066771134734153748,-0.037512637674808502,0.052950605750083923,0.081414669752120972,-0.036762706935405731,-0.021287135779857635,-0.013981029391288757,0.045199617743492126,0.025357991456985474,-0.026729956269264221,-0.016845978796482086,0.079018354415893555,0.05027422308921814,0.077786937355995178,0.095394432544708252,-0.067485056817531586,0.070085629820823669,0.046266317367553711,-0.049157358705997467,-0.1016884371638298,-0.05869939923286438,0.024573326110839844,0.028585314750671387,0.092021733522415161,-0.07255447655916214,-0.028284549713134766,-0.022163607180118561,-0.061355374753475189,0.059862226247787476,0.058174595236778259,0.0085210278630256653,-0.011550016701221466,-0.057979807257652283,0.078716516494750977,-0.079982325434684753,-0.074636839330196381,-0.043649863451719284,0.072053328156471252,-0.024066120386123657,-0.078465178608894348,-0.011123038828372955,-0.048692904412746429,-0.081730298697948456,0.097672194242477417,0.076903238892555237,-0.069689743220806122,-0.026313923299312592,-0.072417087852954865,0.035981670022010803,-0.011343933641910553,-0.10130517929792404,-0.054832879453897476,0.0044393092393875122,0.071912333369255066,0.078194111585617065,-0.038467094302177429,-0.049138743430376053,0.014977753162384033,-0.099834807217121124,0.09947890043258667,-0.0057118535041809082,0.079649999737739563,-0.0012319311499595642,0.067810490727424622,-0.011094294488430023,-0.029357850551605225,0.047367990016937256,-0.049061194062232971,-0.070630595088005066,-0.044140666723251343,0.1009962409734726, 
  /* [3][0][][] */ 0.051348865032196045,0.076354548335075378,0.019284099340438843,0.0035970509052276611,-0.067387968301773071,0.046141326427459717,0.078357309103012085,0.0012727156281471252,-0.011925362050533295,-0.063906371593475342,-0.078734651207923889,-0.041910577565431595,0.043663591146469116,0.070578157901763916,-0.093342117965221405,-0.063607752323150635,-0.066717237234115601,0.05382220447063446,-0.012124240398406982,0.09112277626991272,0.082003369927406311,-0.07117462158203125,-0.06885857880115509,-0.093222253024578094,0.014890417456626892,0.047440916299819946,0.058186203241348267,0.043861806392669678,0.099707379937171936,-0.020856603980064392,-0.07567279040813446,-0.0009537041187286377,0.074133962392807007,0.039088740944862366,0.087100669741630554,-0.018861405551433563,0.021691069006919861,0.077319994568824768,0.055215299129486084,-0.028082728385925293,-0.024437956511974335,0.070513874292373657,0.022862702608108521,-0.098982110619544983,0.073547407984733582,0.09276774525642395,0.0071053579449653625,0.060824200510978699,-0.00015473365783691406,-0.0086768120527267456,0.063410192728042603,-0.086333148181438446,0.017856061458587646,-0.019692465662956238,0.049071460962295532,0.062036126852035522,0.091694891452789307,0.027562797069549561,0.099986627697944641,0.08905358612537384,-0.083719752728939056,-0.073509566485881805,-0.034761466085910797,0.01263098418712616,-0.026514284312725067,-0.085787639021873474,0.090171173214912415,0.002019926905632019,-0.083801999688148499,-0.051569074392318726,-0.032616518437862396,0.041967973113059998,-0.015073992311954498,-0.095019206404685974,-0.093236416578292847,-0.018013842403888702,0.050044283270835876,-0.081600159406661987,-0.076511293649673462,0.01871693879365921,-0.014691494405269623,-0.010460875928401947,-0.038649767637252808,0.045186832547187805,-0.02788727730512619,0.023951679468154907,-0.061372894793748856,0.04402567446231842,0.10025504231452942,0.012503422796726227,0.076824769377708435,0.016011245548725128,-0.057919681072235107,0.052850544452667236,0.018041923642158508,0.011202536523342133,0.09957730770111084,-0.076609142124652863,0.060086801648139954,0.017732135951519012,-0.085407309234142303,-0.1018277183175087,0.034545943140983582,-0.0094044357538223267,0.048502683639526367,0.0062951967120170593,0.083534389734268188,-0.085740335285663605,-0.010571733117103577,-0.039356924593448639,-0.063689567148685455,-0.073943115770816803,0.077310070395469666,0.042092680931091309,0.051296591758728027,-0.039757303893566132,-0.052575413137674332,-0.017998218536376953,-0.028726570308208466,-0.029445283114910126,-0.0076467543840408325,-0.052380282431840897,0.090028554201126099,-0.023507863283157349,0.053745731711387634,0.067432329058647156,0.027498021721839905,0.074798122048377991, 0.0044253617525100708,0.0094290077686309814,-0.17392818629741669,0.00088511395733803511,0.048033371567726135,0.085682064294815063,0.087371602654457092,0.043418407440185547,-0.072756297886371613,-0.09569307416677475,0.089512363076210022,0.052768688648939133,-0.094788864254951477,0.095525361597537994,-0.057088583707809448,0.017725178971886635,-0.036616578698158264,-0.096800811588764191,0.061575353145599365,0.010853789746761322,-0.0066997185349464417,-0.03779999166727066,-0.055384226143360138,0.052347570657730103,-0.026471950113773346,0.084847524762153625,0.0050881765782833099,0.064726948738098145,-0.027833916246891022,0.036369163542985916,-0.0086041316390037537,0.01901448518037796,-0.074610725045204163,0.061002675443887711,0.050494883209466934,-0.025582278147339821,0.0620928555727005,-0.020396284759044647,-0.078077085316181183,-0.070676714181900024,0.032212316989898682,-0.031460702419281006,0.015202134847640991,-0.0043150167912244797,0.017702206969261169,-0.012534983456134796,-0.049286734312772751,-0.0023910747841000557,-0.0838126540184021,-0.05146915465593338,0.0056511834263801575,-0.13701555132865906,0.088679671287536621,-0.053103331476449966,0.0085285231471061707,0.05175328254699707,-0.11695503443479538,0.053720198571681976,-0.02925838902592659,-0.05552716925740242,0.016037017107009888,0.013779036700725555,-0.12835165858268738,0.044463068246841431,0.083784706890583038,-0.029612656682729721,-0.14857862889766693,0.041659582406282425,-0.05847606435418129,-0.061538729816675186,0.012828446924686432,-0.099642917513847351,0.10042880475521088,-0.052365850657224655,0.070394217967987061,-0.17641353607177734,-0.05463346466422081,0.010166876018047333,0.06133018434047699,0.075269579887390137,0.0014937680680304766,0.091478690505027771,0.0055264011025428772,-0.043267186731100082,-0.09558279812335968,-0.058760151267051697,-0.0082227103412151337,-0.017765350639820099,-0.017000548541545868,0.021096333861351013,0.06783236563205719,0.083359986543655396,-0.14025688171386719,-0.033033784478902817,0.063004739582538605,-0.051486536860466003,-0.009585249237716198,-0.026563979685306549,0.062924444675445557,0.0081804078072309494,0.05851123109459877,0.042335748672485352,-0.057079918682575226,0.034056335687637329,-0.08185315877199173,0.035742267966270447,-0.081227175891399384,0.043185874819755554,-0.019937701523303986,-0.035012472420930862,0.09320521354675293,-0.097356311976909637,0.095966443419456482,-0.061608918011188507,-0.014656990766525269,-0.055197730660438538,0.10188193619251251,0.071259453892707825,0.10412835329771042,-0.076831452548503876,0.012492773123085499,0.017338953912258148,0.037451129406690598,0.052621282637119293,0.018685046583414078,0.039917115122079849,0.00047165900468826294,0.036344334483146667, -0.017698995769023895,-0.070680826902389526,-0.037905454635620117,0.099114269018173218,0.077718719840049744,-0.0073985010385513306,0.047882139682769775,-0.074129559099674225,0.007838815450668335,-0.10106834769248962,-0.090747535228729248,-0.03342168778181076,0.028208866715431213,-0.067392885684967041,-0.049864418804645538,0.029671341180801392,-0.037361748516559601,-0.075683355331420898,-0.061640709638595581,-0.094001390039920807,-0.090374551713466644,-0.10192714631557465,0.10045161843299866,-0.073884397745132446,-0.04659917950630188,0.00098718702793121338,-0.044410236179828644,-0.086986280977725983,-0.043255757540464401,-0.089661777019500732,0.041886493563652039,0.024123623967170715,0.019065096974372864,-0.10043275356292725,0.031292527914047241,0.03650309145450592,0.079349040985107422,0.049779608845710754,-0.011417686939239502,0.03060343861579895,0.069023758172988892,-0.055556338280439377,-0.033810615539550781,-0.046376988291740417,0.037182703614234924,-0.09864971786737442,-0.0071679651737213135,-0.099450536072254181,0.020399428904056549,-0.023017078638076782,0.095332279801368713,-0.029039688408374786,0.054890915751457214,-0.050370067358016968,0.005234062671661377,0.0071795284748077393,0.076409071683883667,-0.080746568739414215,-0.023131079971790314,-0.0420958511531353,0.083577796816825867,0.070104241371154785,0.08237418532371521,0.075026974081993103,-0.07070612907409668,-0.047798648476600647,0.018705159425735474,-0.0046759471297264099,0.070834293961524963,-0.063087627291679382,0.050383031368255615,-0.039000950753688812,0.068736821413040161,0.023978158831596375,0.044158682227134705,0.030695825815200806,0.014905534684658051,0.021706916391849518,0.062784284353256226,0.015580229461193085,0.099056839942932129,-0.052047569304704666,0.065364554524421692,0.011213630437850952,0.020151466131210327,-0.028310246765613556,0.0026121065020561218,0.083651185035705566,0.079991042613983154,-0.083297133445739746,-0.0642552450299263,-0.098270677030086517,-0.025781214237213135,-0.0054367110133171082,0.065129935741424561,0.0053653419017791748,-0.064117670059204102,-0.045051131397485733,0.084301352500915527,-0.015558011829853058,0.045143067836761475,0.053698673844337463,0.096886873245239258,-0.036896176636219025,-0.059312749654054642,0.02465173602104187,-0.016897790133953094,-0.010742045938968658,0.018979810178279877,-0.017787396907806396,0.091664716601371765,0.047455325722694397,-0.023884490132331848,-0.027742765843868256,-0.086115658283233643,-0.066266044974327087,-0.057708662003278732,-0.019432753324508667,0.060189947485923767,1.1608004570007324e-05,-0.054594144225120544,0.074895143508911133,-0.089254967868328094,-0.058728184551000595,0.053801253437995911,-0.079656988382339478,0.0085510611534118652,0.010282412171363831, 
  /* [4][0][][] */ -0.039559811353683472,-0.095134936273097992,-0.075352609157562256,-0.030361995100975037,0.051575422286987305,-0.083058953285217285,-0.078249827027320862,0.051608279347419739,-0.020675808191299438,-0.091968223452568054,-0.031941801309585571,0.096060976386070251,-0.050273656845092773,-0.017992086708545685,-0.036336988210678101,-0.015611469745635986,-0.0260019451379776,0.096818700432777405,-0.088728219270706177,0.077717512845993042,-0.093240164220333099,0.10184085369110107,0.080465346574783325,-0.04127844050526619,-0.050096292048692703,-0.09833218902349472,-0.0036579295992851257,0.029036447405815125,-0.031758278608322144,-0.0034098252654075623,0.099946841597557068,-0.074866838753223419,-0.059290241450071335,-0.074729770421981812,0.045568063855171204,-0.02433101087808609,0.011185087263584137,-0.040695555508136749,0.0057538971304893494,0.014652535319328308,0.086569711565971375,0.064772278070449829,0.10009339451789856,0.029142230749130249,-0.020166777074337006,-0.097198709845542908,-0.00044386833906173706,0.012477368116378784,-0.054613754153251648,-0.030591145157814026,0.075757890939712524,-0.065679922699928284,0.10010936856269836,0.011556461453437805,-0.078561738133430481,0.10023659467697144,-0.026238977909088135,-0.014394357800483704,-0.0060275793075561523,-0.050576537847518921,-0.06444278359413147,-0.07511109858751297,0.08333335816860199,0.099850118160247803,0.087290376424789429,-0.017601802945137024,-0.0041758716106414795,-0.061508432030677795,-0.066999651491641998,-0.036217242479324341,0.090271130204200745,0.0073489323258399963,-0.058221440762281418,0.087708666920661926,0.013092055916786194,0.035919979214668274,-0.01645343005657196,0.096189484000205994,-0.013072222471237183,0.072157859802246094,0.055694535374641418,0.072726398706436157,-0.00062441825866699219,-0.040375109761953354,0.0058865919709205627,-0.019845448434352875,0.021528087556362152,0.015264160931110382,-0.077445924282073975,-0.064855530858039856,0.06144501268863678,0.038689553737640381,0.097990497946739197,-0.0762619748711586,0.016412019729614258,0.012803405523300171,-0.019717894494533539,-0.058799386024475098,-0.01186089962720871,-0.086535021662712097,0.021360114216804504,0.0698891282081604,7.0691108703613281e-05,0.023175492882728577,0.024686917662620544,-0.077515028417110443,-0.028630934655666351,-0.049438241869211197,0.011884480714797974,0.055103376507759094,-0.033330731093883514,0.026520207524299622,-0.094648413360118866,0.042446866631507874,-0.053263586014509201,0.036142036318778992,-0.082128562033176422,-0.066605687141418457,-0.015764333307743073,0.049601495265960693,0.042304664850234985,-0.057804729789495468,0.084912508726119995,0.093110337853431702,-0.050679758191108704,-0.070703983306884766,0.0017165541648864746,0.094952508807182312, -0.040803644806146622,-0.049998495727777481,-0.036285273730754852,0.020803352817893028,0.065018981695175171,-0.060131765902042389,0.08138023316860199,-0.081265822052955627,0.03132300078868866,0.035977363586425781,0.03596217930316925,-0.045924361795186996,0.0090986564755439758,-0.12268912047147751,0.034028328955173492,0.043640203773975372,0.014196887612342834,-0.048745851963758469,0.004168893676251173,0.078336544334888458,-0.041895199567079544,-0.093537323176860809,-0.034333303570747375,0.064444780349731445,-0.06927906721830368,0.041922770440578461,0.078883819282054901,0.019229615107178688,0.088033914566040039,-0.098650999367237091,-0.042068183422088623,0.017308779060840607,0.014420147053897381,0.013396442867815495,0.039133276790380478,0.051156017929315567,0.10003052651882172,-0.0062223151326179504,-0.040050547569990158,0.036923915147781372,-0.10084705799818039,-0.024855837225914001,0.016763418912887573,0.023540066555142403,-0.045975293964147568,-0.083166338503360748,0.0074551370926201344,0.019632827490568161,0.011761988513171673,0.036592636257410049,0.098387062549591064,0.042206048965454102,-0.057148575782775879,-0.070158772170543671,-0.014372020959854126,-0.096584849059581757,0.020404588431119919,0.00048106559552252293,0.071682639420032501,0.029375886544585228,0.058622628450393677,0.058306172490119934,0.0065402155742049217,-0.066377416253089905,-0.12017630040645599,0.032211124897003174,-0.09155619889497757,0.0055624828673899174,0.059833824634552002,-0.063616834580898285,0.044974088668823242,-0.052611902356147766,0.06627461314201355,-0.058060742914676666,0.0073424875736236572,-0.01044740341603756,0.010432839393615723,0.041051656007766724,-0.079940885305404663,0.061628282070159912,-0.056393817067146301,0.072235360741615295,0.067788511514663696,0.014068358577787876,0.055915743112564087,-0.0054133604280650616,-0.099155545234680176,-0.088144391775131226,0.069000840187072754,0.0090536400675773621,-0.066023468971252441,0.058863624930381775,0.018735744059085846,-0.042080476880073547,0.020488712936639786,0.01303909532725811,0.03175957128405571,-0.0057934150099754333,0.077555552124977112,-0.12508401274681091,-0.050218764692544937,0.0375804603099823,0.0035349689424037933,-0.093780234456062317,-0.063613519072532654,-0.10958831012248993,-0.022892244160175323,0.012053831480443478,-0.089902579784393311,-0.036122359335422516,-0.015680335462093353,-0.034578714519739151,-0.07783922553062439,0.086764201521873474,-0.097512610256671906,-0.11883936822414398,0.0049449577927589417,-0.020394898951053619,-0.098223164677619934,0.042526647448539734,-0.053471572697162628,0.060169532895088196,0.0088600628077983856,-0.042816814035177231,0.073496781289577484,-0.12856884300708771,-0.03258245438337326,0.066344350576400757, -0.021840527653694153,-0.035399638116359711,-0.090522132813930511,0.029648706316947937,0.087090402841567993,0.0071617886424064636,0.096437141299247742,-0.094705626368522644,-0.064255684614181519,0.078263357281684875,0.02591802179813385,-0.037323661148548126,-0.090806007385253906,-0.091024331748485565,-0.010403424501419067,-0.07651655375957489,-0.020749099552631378,-0.014313690364360809,-0.03306298702955246,0.018193036317825317,-0.071677088737487793,0.034031733870506287,-0.089688345789909363,-0.07185179740190506,-0.064170710742473602,-0.033007487654685974,0.054542601108551025,-0.090914733707904816,0.025449424982070923,0.097196713089942932,0.10155771672725677,-0.057852737605571747,-0.021087430417537689,-0.093260258436203003,-0.051193024963140488,-0.060829285532236099,0.04382835328578949,-0.095096543431282043,0.037636831402778625,-0.018195904791355133,0.020580224692821503,-0.041663177311420441,0.079263269901275635,0.023650094866752625,-0.018827162683010101,-0.085139051079750061,0.064524590969085693,0.0089461877942085266,-0.0083158016204833984,-0.099733017385005951,-0.019410029053688049,0.061232417821884155,0.070646777749061584,-0.096672423183917999,-0.026517279446125031,-0.036891572177410126,-0.019957385957241058,0.068023025989532471,0.05366063117980957,0.061891570687294006,-0.099881604313850403,-0.023675441741943359,0.035442635416984558,-0.07967725396156311,-0.080118834972381592,-0.020228579640388489,0.036606237292289734,0.056171149015426636,-0.05919932946562767,-0.067260503768920898,0.0040302872657775879,-0.075066156685352325,-0.0057027488946914673,-0.068978108465671539,-0.10184740275144577,0.025852829217910767,-0.083507008850574493,0.049450993537902832,-0.0094124376773834229,-0.034835562109947205,0.068803876638412476,0.011734344065189362,0.069482713937759399,-0.059195704758167267,-0.029772520065307617,-0.078277468681335449,0.040168151259422302,0.038630396127700806,-0.081073924899101257,0.073518276214599609,-0.029817216098308563,0.046485394239425659,-0.052771806716918945,-0.098804116249084473,0.0017735734581947327,-0.035242713987827301,-0.046098176389932632,0.00077322125434875488,-0.069415256381034851,-0.018442794680595398,0.081330984830856323,0.05177345871925354,0.026453912258148193,0.014343403279781342,-0.062876097857952118,0.014507435262203217,0.082378491759300232,0.076484173536300659,-0.046220500022172928,0.087567582726478577,0.025155141949653625,0.0956706702709198,-0.069453902542591095,0.038344353437423706,-0.015417873859405518,0.054432079195976257,-0.057403445243835449,-0.029807001352310181,-0.086956232786178589,-0.058358486741781235,-0.073509491980075836,0.028471291065216064,0.076751098036766052,-0.023938052356243134,-0.0061553269624710083,-0.056857451796531677,-0.020023033022880554,-0.015243597328662872, 
  /* [5][0][][] */ -0.076626956462860107,-0.017362996935844421,-0.082070820033550262,0.073380962014198303,-0.061525635421276093,0.004926927387714386,-0.030853554606437683,0.049941509962081909,-0.085515230894088745,0.063076257705688477,0.045284092426300049,-0.099918879568576813,0.025647014379501343,-0.091485202312469482,0.012755177915096283,0.022313423454761505,0.035802215337753296,-0.028784528374671936,0.011603765189647675,0.078726038336753845,-0.083855047821998596,-0.029044918715953827,-5.833059549331665e-05,-0.097357779741287231,0.010577552020549774,-0.015721186995506287,-0.091463647782802582,0.084072351455688477,0.023890569806098938,0.029665306210517883,0.09252813458442688,0.065642252564430237,0.054865419864654541,0.082634404301643372,-0.091015323996543884,-0.082372069358825684,0.058998182415962219,-0.03181178867816925,-0.065796844661235809,-0.018117234110832214,0.058255359530448914,-0.026038229465484619,-0.099562272429466248,-0.057459656149148941,-0.029764339327812195,0.052265211939811707,-0.091343559324741364,-0.036770857870578766,-0.0084375664591789246,-0.076007835566997528,-0.010762438178062439,-0.019611045718193054,-0.053703952580690384,0.032752782106399536,0.020177215337753296,-0.10130824893712997,0.069090068340301514,-0.026349693536758423,-0.050924967974424362,-0.035720914602279663,-0.084307119250297546,0.057462871074676514,-0.0047238841652870178,0.046400666236877441,0.0078717172145843506,0.098546981811523438,0.082124918699264526,0.098732039332389832,-0.064955323934555054,-0.042497768998146057,0.028930097818374634,0.0048090517520904541,-0.016309820115566254,0.014315783977508545,0.075073480606079102,0.068633228540420532,0.051993429660797119,0.029544979333877563,0.056545183062553406,0.088128224015235901,0.065408587455749512,0.09725421667098999,0.045115217566490173,-0.065298594534397125,0.0039105862379074097,-0.067845121026039124,0.073591694235801697,-0.0015110820531845093,0.020163953304290771,-0.029902264475822449,-0.046360809355974197,-0.010620333254337311,-0.070866093039512634,-0.0070972070097923279,0.028435677289962769,-0.036365509033203125,0.021931536495685577,0.078171208500862122,-0.073557943105697632,0.045091837644577026,-0.080426260828971863,0.073291033506393433,0.099340379238128662,0.094765529036521912,-0.097034558653831482,-0.05303950235247612,-0.005250878632068634,0.04766632616519928,0.079217016696929932,-0.018764115869998932,-0.10020577162504196,-0.023932725191116333,0.049727961421012878,0.043175086379051208,0.0064214393496513367,0.024489447474479675,-0.046381466090679169,-0.0033368542790412903,0.041318535804748535,0.0338621586561203,0.071720734238624573,-0.053715605288743973,0.070542320609092712,-0.056922324001789093,0.067826166749000549,0.098271504044532776,0.031219899654388428,0.014423780143260956, -0.019011445343494415,0.0053138062357902527,-0.07473476231098175,0.0064759203232824802,0.020357795059680939,-0.010942019522190094,0.040524542331695557,-0.039493575692176819,-0.033720217645168304,-0.0089207813143730164,0.0025275945663452148,0.04716762900352478,-0.068151548504829407,-0.011944436468183994,0.017089718952775002,-0.039230704307556152,0.0042022466659545898,-0.13556276261806488,-0.017210602760314941,0.02153024822473526,0.09828464686870575,-0.051892686635255814,0.021759623661637306,-0.079626716673374176,-0.021042995154857635,-0.028579507023096085,0.10596911609172821,-0.026567218825221062,0.080041632056236267,-0.01084543764591217,0.10012425482273102,-0.097053050994873047,-0.030463835224509239,-0.071843698620796204,-0.053813200443983078,0.016190512105822563,-0.068129114806652069,0.072196096181869507,-0.0017163380980491638,-0.057240631431341171,-0.0098662599921226501,0.051290899515151978,0.069728583097457886,-0.023436546325683594,-0.074805058538913727,-0.0089109241962432861,-0.070133782923221588,-0.01233865600079298,-0.021939385682344437,0.052697878330945969,-0.073435522615909576,0.037366840988397598,-0.016095146536827087,-0.12238989770412445,0.058537602424621582,-0.068590573966503143,-0.045383602380752563,0.046880893409252167,-0.061264019459486008,-0.0025349152274429798,-0.030579149723052979,-0.051059506833553314,-0.042807359248399734,-0.053873457014560699,0.058325644582509995,-0.065879441797733307,0.029210817068815231,-0.013773689977824688,-0.03335927426815033,-0.095144040882587433,-0.0066407546401023865,-0.010005752556025982,0.075581520795822144,0.061998531222343445,0.016016475856304169,-0.064020320773124695,-0.01278308779001236,0.027969673275947571,-0.075108446180820465,0.09045979380607605,0.028135363012552261,-0.06376059353351593,0.059553727507591248,-0.10196822136640549,-0.0057031363248825073,0.084349751472473145,-0.054491456598043442,0.050775974988937378,0.059896782040596008,0.055521219968795776,-0.085955396294593811,0.012662224471569061,0.016686825081706047,-0.069891221821308136,0.044968776404857635,-0.063745006918907166,-0.10105938464403152,-0.0057495459914207458,0.067453101277351379,-0.030743932351469994,-0.049167115241289139,0.0018692538142204285,0.070968717336654663,-0.059581030160188675,0.0053991153836250305,-0.10264013707637787,-0.039085797965526581,0.023002428933978081,0.10064725577831268,-0.1177346408367157,-0.023218512535095215,-0.067546740174293518,-0.029996216297149658,0.093594156205654144,0.019981279969215393,-0.050608977675437927,0.085217460989952087,0.067448973655700684,0.095019638538360596,-0.0022217929363250732,-0.013965826481580734,0.014048971235752106,-0.074518024921417236,-0.041361790150403976,-0.055825665593147278,0.0074838674627244473,0.010089442133903503,-0.051561534404754639, -0.09448397159576416,0.1020008772611618,-0.036422714591026306,0.057191476225852966,0.091950178146362305,-0.0026476755738258362,0.048087388277053833,0.026999771595001221,-0.090275049209594727,-0.062285546213388443,-0.029236450791358948,-0.086182206869125366,0.083850860595703125,-0.0045270025730133057,-0.042367536574602127,0.066535905003547668,0.040371313691139221,-0.10118585079908371,0.062561124563217163,-0.023071512579917908,0.057800054550170898,-0.097950130701065063,0.0051869526505470276,0.042094871401786804,-0.06986796110868454,-0.09505201131105423,-0.015826970338821411,-0.038502156734466553,-0.089040346443653107,-0.011989481747150421,-0.018402814865112305,0.07560102641582489,0.09220479428768158,0.014568313956260681,-0.089985676109790802,0.070322364568710327,0.02471594512462616,0.066814735531806946,-0.04163254052400589,0.08591972291469574,-0.067177161574363708,-0.022619374096393585,0.0051293522119522095,0.011342301964759827,-0.064419522881507874,0.076444700360298157,-0.057327475398778915,0.0014717131853103638,-0.045159731060266495,0.01165781170129776,0.085237845778465271,0.0015456601977348328,0.08423149585723877,0.053666189312934875,0.0063508972525596619,-0.052142396569252014,0.088859304785728455,-0.076053611934185028,0.077038705348968506,0.082446068525314331,-0.089125856757164001,-0.064527615904808044,-0.085179105401039124,-0.0068244040012359619,0.067056715488433838,0.071248620748519897,-0.086975768208503723,-0.048094835132360458,-0.0053615197539329529,-0.0079688802361488342,-0.08067069947719574,-0.099400550127029419,-0.050626348704099655,-0.062258172780275345,-0.017328612506389618,0.097116798162460327,0.058156415820121765,-0.039183422923088074,0.020886920392513275,-0.085067197680473328,-0.085116639733314514,0.097685232758522034,0.052153125405311584,-0.098091728985309601,-0.089686132967472076,0.083743840456008911,-0.026700757443904877,0.035524755716323853,-0.037146687507629395,-0.015279754996299744,-0.050804346799850464,0.10167887806892395,-0.0041091218590736389,-0.0079991742968559265,0.090402409434318542,0.057108283042907715,0.0030947551131248474,-0.061660345643758774,0.051758900284767151,-0.078094482421875,-0.040503077208995819,0.04157586395740509,-0.043265879154205322,-0.070850111544132233,-0.00034675002098083496,-0.069822892546653748,0.026783555746078491,0.088501259684562683,-0.039078891277313232,0.0018067583441734314,0.05326506495475769,-0.052210092544555664,-0.082856982946395874,-0.022551871836185455,0.031425759196281433,0.084944069385528564,0.051607057452201843,-0.080520212650299072,-0.022779755294322968,-0.058351527899503708,-0.08255062997341156,-0.041199479252099991,0.049499630928039551,0.084074124693870544,0.039307326078414917,0.10125561058521271,0.019943930208683014,-0.039797406643629074, 
  /* [6][0][][] */ 0.080327421426773071,-0.091559372842311859,0.043138250708580017,-0.028529077768325806,-0.034180216491222382,-0.01694711297750473,-0.061038672924041748,-0.087542936205863953,0.099637627601623535,0.040318563580513,0.030853316187858582,0.0099456086754798889,0.072557657957077026,-0.078647948801517487,0.097030982375144958,0.062830671668052673,-0.080003350973129272,-0.055694893002510071,0.044292613863945007,-0.028069347143173218,-0.069694221019744873,-0.083399668335914612,-0.093223467469215393,0.038768172264099121,-0.092499837279319763,0.088825196027755737,0.069302693009376526,0.05500774085521698,-0.016305945813655853,0.052574291825294495,0.068495824933052063,0.058074533939361572,-0.056226726621389389,0.053497016429901123,0.014857523143291473,0.01825994998216629,-0.0050262287259101868,-0.063845619559288025,0.015242867171764374,-0.045338604599237442,-0.07263270765542984,0.09882083535194397,0.065127015113830566,0.060097292065620422,0.078486934304237366,-0.013216078281402588,0.080593734979629517,0.064268246293067932,-0.089063830673694611,0.037443816661834717,0.014822162687778473,0.040776386857032776,-0.022326566278934479,0.04607449471950531,0.081460386514663696,-0.032081715762615204,0.077760308980941772,0.08193109929561615,-0.0070779845118522644,-0.027954906225204468,-0.070982992649078369,-7.0057809352874756e-05,0.078920707106590271,0.027791410684585571,0.076602086424827576,-0.024450153112411499,-0.044202622026205063,-0.061711788177490234,0.0034348666667938232,-0.069717653095722198,0.10150305926799774,-0.094004891812801361,-0.089091300964355469,-0.00036166608333587646,0.092581257224082947,0.097583100199699402,-0.020398505032062531,-0.041549298912286758,-0.095893487334251404,-0.047791909426450729,0.051451295614242554,-0.035338416695594788,0.014680981636047363,-0.016231559216976166,-0.06841006875038147,0.075533166527748108,-0.00091559439897537231,0.068716287612915039,0.047412887215614319,0.088032767176628113,-0.063831984996795654,0.0014602988958358765,-0.050741054117679596,-0.080276519060134888,0.05429549515247345,0.085403516888618469,0.015267610549926758,-0.037630192935466766,-0.038671225309371948,-0.085959069430828094,-0.029326140880584717,-0.036434955894947052,0.092591360211372375,0.072601422667503357,0.0060156062245368958,0.061660736799240112,0.026942089200019836,-0.017034567892551422,0.015825048089027405,0.031495034694671631,-0.082855649292469025,-0.093443028628826141,-0.0063483864068984985,0.065348356962203979,0.09717211127281189,-0.039822958409786224,-0.098086930811405182,-0.012723788619041443,0.079817071557044983,0.07375064492225647,0.084993109107017517,-0.0017125159502029419,-0.060738813132047653,-0.058614887297153473,0.0012885108590126038,0.0068625584244728088,-0.06587432324886322,-0.071558214724063873, -0.09208950400352478,0.017267681658267975,-0.064751021564006805,-0.093682676553726196,-0.085706144571304321,-0.076700784265995026,-0.017435021698474884,-0.020677268505096436,0.002286955714225769,0.01918589323759079,-0.016873575747013092,-0.088660605251789093,0.010270923376083374,-0.10444071888923645,-0.038510408252477646,-0.0047409781254827976,-0.088251404464244843,0.035609431564807892,0.024808313697576523,-0.018354769796133041,0.078810110688209534,-0.030805937945842743,-0.034457143396139145,0.037923797965049744,-0.039579428732395172,-0.050665255635976791,0.030325973406434059,0.041320867836475372,0.091674521565437317,-0.056649960577487946,0.091225787997245789,0.095276579260826111,-0.064877942204475403,-0.021073771640658379,-0.06862303614616394,-0.10664950311183929,-0.094224691390991211,-7.3388218879699707e-05,-0.050560232251882553,-0.042268108576536179,-0.056050721555948257,0.08755849301815033,-0.04493284597992897,-0.10205505043268204,-0.0034529194235801697,0.039316505193710327,0.075003154575824738,0.028256351128220558,-0.094764508306980133,0.034852456301450729,0.010960854589939117,-0.079149708151817322,-0.058993566781282425,0.037413440644741058,0.017006196081638336,0.010182403028011322,0.062401920557022095,0.037290666252374649,0.034217461943626404,-0.073655962944030762,0.099623158574104309,-0.080414831638336182,0.063901938498020172,0.0055036544799804688,-0.14970916509628296,-0.15215802192687988,0.016291290521621704,-0.050518516451120377,0.059646070003509521,-0.045112304389476776,-0.10120539367198944,-0.049649152904748917,-0.094627514481544495,-0.073351249098777771,0.053759068250656128,0.076886929571628571,0.00067396461963653564,0.062764719128608704,0.063346490263938904,0.0055231451988220215,-0.026185844093561172,0.026405006647109985,0.097894936800003052,-0.052715588361024857,-0.091134682297706604,-0.01955285482108593,-0.044257123023271561,-0.039398141205310822,0.076998159289360046,0.014386937022209167,-0.040010105818510056,-0.047660045325756073,0.022263228893280029,-0.096165068447589874,-0.094758033752441406,-0.055563285946846008,-0.095536597073078156,-0.095083348453044891,0.035598590970039368,-0.051892738789319992,-0.1000513955950737,-0.026273168623447418,0.032724283635616302,0.08458603173494339,0.0072800964117050171,-0.020459612831473351,0.011596761643886566,0.048769298940896988,0.036215081810951233,0.013959447853267193,0.089043065905570984,-0.054204758256673813,-0.059726975858211517,-0.012138857506215572,-0.073494508862495422,0.064251527190208435,-0.093012526631355286,0.093834653496742249,0.014428402297198772,0.02374093234539032,0.063404835760593414,-0.08539416640996933,-0.026979362592101097,-0.11952570080757141,0.012405983172357082,0.02548232302069664,-0.090624630451202393,0.039218872785568237, 0.042558044195175171,0.07909904420375824,-0.064526543021202087,-0.096499241888523102,-0.088545233011245728,0.10086029767990112,-0.094990909099578857,0.06126733124256134,-0.075083136558532715,0.016539573669433594,0.019850119948387146,0.026816040277481079,-0.055514801293611526,-0.084312424063682556,0.0037562623620033264,-0.088730268180370331,0.022490717470645905,0.033314600586891174,0.0679502934217453,-0.0040650069713592529,-0.075916469097137451,0.07908940315246582,-0.088547423481941223,0.0065533965826034546,-0.018629848957061768,0.0056445226073265076,0.032990068197250366,-0.057245399802923203,0.025733575224876404,0.075979471206665039,0.041297197341918945,0.032957121729850769,0.098481550812721252,-0.061025097966194153,0.047762691974639893,0.08512432873249054,-0.092781379818916321,0.028963848948478699,-0.042067334055900574,0.053216651082038879,-0.033409595489501953,-0.065388575196266174,-0.089661121368408203,-0.052259683609008789,-0.048889860510826111,-0.048796419054269791,-0.021786242723464966,0.010410353541374207,0.033339083194732666,-0.021781131625175476,-0.019526705145835876,-0.085870347917079926,-0.095810823142528534,0.090298682451248169,-0.088646627962589264,0.080599933862686157,0.075923442840576172,-0.09214763343334198,0.020753942430019379,0.089485287666320801,-0.081693358719348907,0.077994227409362793,0.072247609496116638,-0.0048473551869392395,0.018131688237190247,-0.089126855134963989,0.0066870152950286865,0.035182461142539978,0.0071049705147743225,0.073084756731987,0.07179577648639679,-0.012322142720222473,-0.048659227788448334,-0.042899001389741898,-0.1004917174577713,0.082604646682739258,-0.025487393140792847,0.050596371293067932,-0.012258462607860565,0.080145001411437988,0.023889109492301941,0.027954220771789551,-0.024886086583137512,0.038339540362358093,0.10125434398651123,0.042956411838531494,0.021773852407932281,0.063595950603485107,0.045488178730010986,-0.018322974443435669,-0.059653148055076599,-0.034817218780517578,-0.069719113409519196,-0.017474956810474396,-0.060220412909984589,0.048191055655479431,0.059859395027160645,0.011724412441253662,0.0052831396460533142,-0.037998773157596588,-0.028492331504821777,0.038266047835350037,0.10082888603210449,0.092875957489013672,-0.037487626075744629,0.084902271628379822,-0.015108399093151093,-0.04224652424454689,-0.068558819591999054,-0.10043618828058243,0.10162431001663208,0.046425998210906982,-0.0023314878344535828,-0.069617599248886108,0.0024794638156890869,-0.082103230059146881,-0.049408920109272003,0.012402147054672241,-0.012765645980834961,0.063722729682922363,-0.080289170145988464,-0.032038018107414246,-0.020894564688205719,-0.0095740631222724915,-0.095106445252895355,0.010948807001113892,0.069795355200767517,-0.017227239906787872, 
  /* [7][0][][] */ -0.013128504157066345,-0.084403157234191895,0.054728269577026367,0.067385166883468628,0.014207743108272552,0.089599743485450745,0.0044777765870094299,0.071931540966033936,-0.029361285269260406,-0.046008069068193436,-0.083192981779575348,-0.01864972710609436,-0.057724207639694214,0.014508746564388275,-0.048845037817955017,0.089087411761283875,-0.033379688858985901,-0.065200313925743103,0.079895496368408203,0.053150370717048645,0.039632603526115417,-0.097452171146869659,0.043164506554603577,-0.060267619788646698,0.095268890261650085,-0.0485047847032547,-0.055671166628599167,0.00029949843883514404,0.016902826726436615,-0.064401514828205109,0.07599581778049469,-0.0090577751398086548,-0.039146170020103455,-0.053244970738887787,-0.015153706073760986,0.00071936845779418945,0.010023064911365509,0.014584667980670929,0.094416543841362,-0.068273410201072693,0.078342854976654053,0.067599281668663025,-0.075480334460735321,0.039309710264205933,0.081785902380943298,0.030965074896812439,0.099316403269767761,0.062030360102653503,0.042978331446647644,-0.036561079323291779,-0.081857755780220032,-0.053200904279947281,-0.09249521791934967,0.05019611120223999,0.050488054752349854,0.018723070621490479,0.021127238869667053,-0.034038811922073364,0.034416809678077698,-0.0019656568765640259,0.0070715546607971191,-0.033435486257076263,0.041760489344596863,0.06266021728515625,-0.0044828355312347412,0.075559735298156738,0.00880441814661026,0.0031057298183441162,-0.088827572762966156,-0.032106272876262665,-0.059112630784511566,-0.06548328697681427,-0.077721863985061646,0.091047152876853943,0.067125618457794189,0.0025301724672317505,0.080211013555526733,0.074479281902313232,-0.071406960487365723,-0.074603214859962463,0.047275260090827942,-0.091723993420600891,0.031525745987892151,-0.1009485051035881,0.05904775857925415,-0.0034166201949119568,0.047317266464233398,-0.020109154284000397,0.041498348116874695,0.069605067372322083,0.052880629897117615,-0.043326884508132935,-0.031933479011058807,-0.067328885197639465,-0.059653174132108688,0.074390783905982971,-0.083938002586364746,0.043544009327888489,0.096122100949287415,-0.044141616672277451,-0.063077822327613831,0.031773895025253296,-0.015873834490776062,-0.063361138105392456,0.058273732662200928,-0.082563400268554688,-0.066214680671691895,-0.027035951614379883,-0.006909787654876709,-0.10000331699848175,-0.020588129758834839,0.066238567233085632,0.092230960726737976,0.081479832530021667,-0.028440475463867188,-0.050397343933582306,0.090470865368843079,-0.011034898459911346,0.089967697858810425,0.07576267421245575,0.074081063270568848,0.05207274854183197,0.0057767704129219055,0.073849305510520935,-0.035551257431507111,-0.0027069076895713806,0.0045212581753730774,-0.079423680901527405, 0.061123549938201904,0.01373608410358429,0.039699550718069077,-0.015901524573564529,-0.056061428040266037,-0.038750991225242615,-0.019953198730945587,-0.015169844031333923,-0.10051415115594864,-0.0024931579828262329,0.00078675150871276855,0.071936972439289093,0.088534936308860779,0.043639563024044037,0.034326057881116867,-0.062857083976268768,0.014001399278640747,-0.021611999720335007,-0.026943013072013855,0.027673879638314247,-0.028361395001411438,0.070062682032585144,-0.085250981152057648,-0.091694377362728119,0.033184543251991272,0.018843496218323708,-0.02016708068549633,0.019867772236466408,-0.024559848010540009,0.051078286021947861,-0.0017488002777099609,0.031708002090454102,-0.045487530529499054,-0.044388458132743835,-0.0056980103254318237,0.074607975780963898,0.05726131796836853,-0.027808971703052521,0.039425879716873169,0.09628574550151825,-0.065545625984668732,-0.091880626976490021,0.0547209233045578,0.013185125775635242,0.097413823008537292,-0.045884918421506882,-0.068140588700771332,-0.094664536416530609,-0.034833155572414398,-0.061267700046300888,-0.070372536778450012,-0.038205575197935104,0.082174599170684814,-0.017562486231327057,-0.026307843625545502,-0.021145343780517578,0.0011273234849795699,-0.067811973392963409,-0.027416301891207695,-0.007488359697163105,0.011661484837532043,0.075775593519210815,0.032635599374771118,-0.059507198631763458,0.064095400273799896,0.047840259969234467,0.013937646523118019,-0.067996181547641754,-0.034856803715229034,-0.03725915402173996,-0.010939463973045349,-0.047686617821455002,0.052311241626739502,0.014878079295158386,-0.013726741075515747,-0.033556856215000153,0.0014432445168495178,-0.065997481346130371,-0.056395601481199265,0.051469936966896057,-0.042700137943029404,0.056077733635902405,0.027458429336547852,-0.060090947896242142,0.026806995272636414,-0.096053570508956909,-0.042880691587924957,-0.082734368741512299,-0.036297395825386047,-0.093639329075813293,-0.010063335299491882,-0.048536147922277451,-0.073121882975101471,0.052463628351688385,-0.015690531581640244,-0.040435068309307098,-0.069521568715572357,-0.050461586564779282,-0.025481231510639191,0.016748970374464989,-0.011268483474850655,0.065758302807807922,-0.048478424549102783,0.025159893557429314,0.021261632442474365,-0.0015256742481142282,-0.033373147249221802,-0.035643547773361206,-0.040558729320764542,-0.038632869720458984,0.085524469614028931,-0.030290177091956139,0.018761463463306427,-0.035971570760011673,0.040103062987327576,0.015834188088774681,-0.096681088209152222,-0.093316130340099335,-0.026883115991950035,-0.077639669179916382,-0.0080300904810428619,-0.024526022374629974,0.047786403447389603,-0.042861912399530411,0.0047918260097503662,-0.059526499360799789,-0.076080985367298126,-0.047923237085342407, 0.032572835683822632,0.05144190788269043,0.028463184833526611,0.0035816505551338196,-0.025707513093948364,0.022895917296409607,-0.002301536500453949,-0.010391496121883392,-0.06811407208442688,-0.074583746492862701,0.10048083961009979,0.006983637809753418,0.0060192793607711792,-0.019425742328166962,-0.081808939576148987,0.041224002838134766,-0.073757961392402649,0.076782688498497009,0.076749041676521301,0.061188220977783203,0.058418348431587219,0.028716519474983215,-0.02344987541437149,0.063917398452758789,-0.079114377498626709,0.017559953033924103,-0.058999769389629364,-0.013274699449539185,-0.026619747281074524,0.034621447324752808,-0.045837201178073883,-0.079382330179214478,-0.073670946061611176,0.042273581027984619,-0.022731862962245941,0.072630599141120911,0.034141227602958679,-0.0091930031776428223,0.0048920810222625732,-0.033044084906578064,0.052938833832740784,0.048889666795730591,0.094452038407325745,-0.0070566907525062561,0.077657401561737061,0.045071080327033997,-0.029275797307491302,0.096289202570915222,-0.022515758872032166,0.047861069440841675,0.0043998882174491882,-0.099260538816452026,0.079744324088096619,-0.095554031431674957,0.014889590442180634,0.073028683662414551,-0.083940774202346802,-0.097623333334922791,-0.07808859646320343,0.081091687083244324,-0.012860201299190521,-0.021405056118965149,-0.041250310838222504,0.097974076867103577,0.035585671663284302,0.044274911284446716,-0.030603483319282532,-0.00047002732753753662,0.072349667549133301,0.048647254705429077,-0.013588264584541321,0.092459961771965027,0.06434883177280426,0.017694808542728424,0.065761774778366089,0.069335252046585083,-0.067370347678661346,-0.0026611089706420898,-0.067597359418869019,-0.038133412599563599,0.090855434536933899,-0.087483391165733337,-0.015502847731113434,-0.0013042241334915161,0.089550644159317017,0.052797570824623108,0.065634101629257202,-0.074417375028133392,-0.09336545318365097,-0.082208573818206787,0.083462312817573547,0.01081489771604538,-0.027890391647815704,0.093075886368751526,-0.048737995326519012,-0.089888639748096466,0.002401202917098999,0.070660680532455444,0.075099959969520569,0.075603783130645752,-0.058644454926252365,0.096596583724021912,0.062940210103988647,-0.055666934698820114,-0.039263799786567688,-0.095256797969341278,0.047243505716323853,0.028694227337837219,0.026823952794075012,-0.075385212898254395,0.019351944327354431,0.093808859586715698,0.0045666694641113281,0.068078264594078064,-0.031951360404491425,0.094581425189971924,-0.087849438190460205,0.086478173732757568,-0.013455398380756378,-0.097508892416954041,0.069830775260925293,-0.06311585009098053,-0.083231896162033081,0.085906848311424255,0.040612086653709412,-0.046074938029050827,-0.027083471417427063,-0.082068048417568207, 
  /* [8][0][][] */ 0.054523944854736328,0.017988026142120361,-0.035846792161464691,0.079295873641967773,-0.020896948873996735,0.014970697462558746,0.028610453009605408,-0.010152079164981842,-0.01050761342048645,0.020255781710147858,-0.086083337664604187,0.026388019323348999,-0.00016412883996963501,0.053879901766777039,0.087944373488426208,0.058715924620628357,0.076574951410293579,0.0058164820075035095,-0.018494404852390289,-0.01663508266210556,-0.071155086159706116,-0.095381535589694977,0.013698980212211609,0.020758591592311859,0.040461122989654541,-0.03678429126739502,-0.057386532425880432,-0.013093419373035431,-0.026773244142532349,-0.083101175725460052,-0.080647893249988556,-0.094842255115509033,0.06297890841960907,-0.021177001297473907,0.019743636250495911,0.094268888235092163,0.021954871714115143,-0.084989868104457855,-0.030208572745323181,0.015628628432750702,-0.020129397511482239,0.068658947944641113,0.026055335998535156,0.094608262181282043,-0.022371530532836914,0.028936207294464111,-0.043719235807657242,0.067714259028434753,-0.070893056690692902,-0.10008431971073151,-0.00079962611198425293,0.082752272486686707,0.093277931213378906,-0.093003638088703156,0.09635375440120697,0.065248802304267883,0.091224417090415955,-0.074275903403759003,0.072796136140823364,-0.059074670076370239,0.086388319730758667,-0.099451944231987,-0.020317085087299347,-0.017843045294284821,0.08109833300113678,-0.087752059102058411,0.075927391648292542,-0.032548092305660248,-0.059683762490749359,0.06193329393863678,-0.088207729160785675,0.087475627660751343,-0.022944420576095581,-0.049029681831598282,-0.098012760281562805,0.026679173111915588,0.03556060791015625,-0.072458699345588684,0.047504499554634094,0.067950114607810974,-0.02064899355173111,-0.062039680778980255,0.099695965647697449,-0.068676300346851349,0.039669319987297058,-0.044252213090658188,-0.062940552830696106,-0.077696390450000763,0.068739324808120728,-0.089859411120414734,0.063905015587806702,-0.035836644470691681,-0.089328549802303314,0.0079618468880653381,-0.057458803057670593,0.01784832775592804,0.013122856616973877,0.04885883629322052,-0.087727993726730347,-0.093118056654930115,-0.071232534945011139,-0.096726126968860626,0.018684379756450653,0.0047164186835289001,0.08421790599822998,0.030648574233055115,-0.082136884331703186,0.087500184774398804,-0.050858974456787109,-0.092079818248748779,0.080392614006996155,-0.089645542204380035,-0.062408529222011566,-0.0059544071555137634,0.031863465905189514,0.026545211672782898,-0.00077942758798599243,0.10148768126964569,0.095734372735023499,0.039401769638061523,-0.083599619567394257,-0.087439589202404022,0.030439183115959167,0.087973222136497498,-0.095050282776355743,-0.026254989206790924,-0.030459962785243988,-0.00061763077974319458, -0.065564945340156555,-0.0067510828375816345,0.01808498241007328,-0.095905408263206482,-0.079454801976680756,0.027280166745185852,0.052431777119636536,0.085176676511764526,-0.058943852782249451,0.018845975399017334,-0.086337551474571228,0.067391753196716309,0.049537643790245056,-0.042923614382743835,0.040625102818012238,0.03811635822057724,0.096899285912513733,0.066796116530895233,-0.038597386330366135,-0.011999149806797504,0.031911790370941162,0.080689534544944763,0.071388021111488342,-0.041165802627801895,-0.019897744059562683,-0.09228111058473587,0.093170814216136932,-0.040116015821695328,0.016038939356803894,-0.076102130115032196,0.0060477033257484436,-0.046966906636953354,-0.09549480676651001,-0.11387565732002258,0.024713365361094475,-0.10746565461158752,0.07657267153263092,-0.044517010450363159,0.095051571726799011,-0.0075314566493034363,0.064844220876693726,0.066655993461608887,0.048156961798667908,0.043530970811843872,-0.025320872664451599,0.020118735730648041,-0.042229346930980682,-0.094964593648910522,-0.093528576195240021,0.055259395390748978,0.081014066934585571,-0.06645675003528595,0.073318839073181152,-0.12305005639791489,0.056046605110168457,0.080799758434295654,-0.045010410249233246,-0.01355214137583971,0.01360034104436636,-0.13584792613983154,-0.074641220271587372,0.098228409886360168,-0.066233247518539429,-0.055850017815828323,-0.01127944327890873,0.04381532222032547,-0.12874194979667664,0.032398946583271027,-0.081172943115234375,-0.057525161653757095,-0.075889721512794495,0.033158157020807266,-0.060039956122636795,0.10203240811824799,0.01793622225522995,0.057771485298871994,-0.10109233856201172,0.032992258667945862,0.013605661690235138,0.015698172152042389,0.075233861804008484,-0.054393220692873001,0.050027057528495789,-0.057030536234378815,-0.014991529285907745,-0.07859523594379425,0.0044529084116220474,0.076430529356002808,0.083643302321434021,0.082346051931381226,0.073852285742759705,0.073585778474807739,-0.087660945951938629,-0.057144481688737869,-0.060247823596000671,-0.032747451215982437,-0.015299169346690178,0.01957201212644577,-0.021291054785251617,0.053990893065929413,0.042799364775419235,-0.036789081990718842,-0.0066962377168238163,-0.019904810935258865,0.015147261321544647,-0.089676879346370697,0.014701716601848602,0.032997488975524902,-0.072984278202056885,0.0068588713183999062,0.037126094102859497,-0.065258383750915527,0.049149408936500549,-0.084244862198829651,0.069806694984436035,0.038778796792030334,0.081496134400367737,-0.012916021049022675,-0.039808459579944611,-0.049918949604034424,0.09743887186050415,-0.034100472927093506,0.026959436014294624,-0.028978573158383369,0.041954834014177322,-0.062502369284629822,0.017901547253131866,0.062894493341445923, -0.008366316556930542,-0.027333475649356842,0.041244372725486755,0.076733216643333435,-0.081016108393669128,0.048544764518737793,-0.070553869009017944,6.3337385654449463e-05,0.0018666982650756836,-0.072068244218826294,0.010396242141723633,0.082888394594192505,-0.014153726398944855,-0.048063129186630249,0.03922232985496521,-0.012716442346572876,-0.080384969711303711,0.098928451538085938,-0.060439608991146088,-0.09555661678314209,-0.037691660225391388,0.090949133038520813,-0.073447734117507935,0.0030174031853675842,-0.080971993505954742,0.091218799352645874,-0.020608961582183838,0.0095150768756866455,-0.050606101751327515,0.033245742321014404,-0.079047724604606628,-0.059094890952110291,0.062846526503562927,0.048276394605636597,-0.068641752004623413,0.025653228163719177,-0.093319319188594818,-0.063480369746685028,-0.091564871370792389,0.010681845247745514,-0.033925324678421021,0.087094664573669434,0.065470725297927856,-0.0075239390134811401,0.03609195351600647,0.05237288773059845,-0.00099852681159973145,-0.012914568185806274,-0.09788968414068222,-0.092615470290184021,0.016293562948703766,0.046325013041496277,-0.004075177013874054,0.038963839411735535,0.021964140236377716,0.0062076225876808167,0.078987553715705872,0.018366262316703796,-0.031799837946891785,0.067759469151496887,-0.025334112346172333,-0.070495717227458954,0.099526822566986084,0.10067243874073029,-0.057857774198055267,-0.030376940965652466,-0.090063013136386871,-0.065025299787521362,0.090199917554855347,-0.054439187049865723,0.041644081473350525,-0.065325409173965454,0.09417290985584259,-0.020075671374797821,-0.048881392925977707,0.054599270224571228,-0.056694246828556061,0.086889266967773438,0.1000075489282608,0.090521529316902161,0.048197180032730103,-0.04299628734588623,-0.07471001148223877,0.029347121715545654,0.0098607838153839111,-0.08844582736492157,0.083130791783332825,-0.085496827960014343,-0.04700077697634697,-0.094088084995746613,0.025883764028549194,0.010451383888721466,0.0029077306389808655,0.094127044081687927,-0.086798936128616333,-0.0073276683688163757,0.075248509645462036,-0.016315996646881104,0.020656168460845947,-0.056094545871019363,-0.097197689116001129,0.045262053608894348,-0.056506950408220291,-0.025500550866127014,-0.093299485743045807,-0.077815547585487366,-0.023990273475646973,0.08789767324924469,-0.017732597887516022,0.064452245831489563,-0.10075914114713669,0.056472152471542358,-0.053665917366743088,0.088381394743919373,0.068124145269393921,0.088091090321540833,0.09965960681438446,0.059586629271507263,0.024768337607383728,0.09050200879573822,-0.05200359970331192,0.047633066773414612,0.048225343227386475,-0.075963139533996582,-0.0062522217631340027,-0.014821872115135193,0.0037835165858268738,0.086534976959228516, 
